{"learner":{"attributes":{"scikit_learn":"{\"_estimator_type\": \"classifier\"}"},"feature_names":[],"feature_types":[],"gradient_booster":{"model":{"gbtree_model_param":{"num_parallel_tree":"1","num_trees":"100"},"iteration_indptr":[0,1,2,3,4,5,6,7,8,9,10,11,12,13,14,15,16,17,18,19,20,21,22,23,24,25,26,27,28,29,30,31,32,33,34,35,36,37,38,39,40,41,42,43,44,45,46,47,48,49,50,51,52,53,54,55,56,57,58,59,60,61,62,63,64,65,66,67,68,69,70,71,72,73,74,75,76,77,78,79,80,81,82,83,84,85,86,87,88,89,90,91,92,93,94,95,96,97,98,99,100],"tree_info":[0,0,0,0,0,0,0,0,0,0,0,0,0,0,0,0,0,0,0,0,0,0,0,0,0,0,0,0,0,0,0,0,0,0,0,0,0,0,0,0,0,0,0,0,0,0,0,0,0,0,0,0,0,0,0,0,0,0,0,0,0,0,0,0,0,0,0,0,0,0,0,0,0,0,0,0,0,0,0,0,0,0,0,0,0,0,0,0,0,0,0,0,0,0,0,0,0,0,0,0],"trees":[{"base_weights":[-1.1198446E0,2.1579545E0,-1.1328459E0,6.9447255E0,-6.582472E-1,-7.3774004E-1,-3.4010255E-1,4.554224E0,2.2368727E0,2.488437E0,-1.0078508E0,2.911343E0,-3.33899E-1,1.9595807E0,-2.4860188E-1,-1.9717865E-1,3.4809983E0,-1.0936171E0,-1.9055572E-1,1.031924E-1,1.2464937E0,-2.0330039E-1,1.1686186E-1,-2.9089732E-2,1.3380867E0,-2.9089732E-2,-3.3392906E-1,-7.4307114E-1,4.0876502E-1,-2.6301134E-1,-2.9089732E-2],"categories":[],"categories_nodes":[],"categories_segments":[],"categories_sizes":[],"default_left":[0,0,0,0,0,0,0,0,0,0,0,0,0,0,0,0,0,0,0,0,0,0,0,0,0,0,0,0,0,0,0],"id":0,"left_children":[1,3,5,7,9,11,-1,13,-1,15,17,19,-1,-1,21,-1,23,25,27,-1,-1,-1,-1,-1,-1,-1,-1,29,-1,-1,-1],"loss_changes":[1.0273359E3,1.290067E3,7.0117188E0,9.339478E0,6.955973E1,7.586334E1,0E0,8.531149E1,0E0,2.2217339E1,3.6867332E0,1.5243664E1,0E0,0E0,1.2313697E0,0E0,1.7989704E1,8.643303E-1,6.5803294E0,0E0,0E0,0E0,0E0,0E0,0E0,0E0,0E0,3.840816E-1,0E0,0E0,0E0],"parents":[2147483647,0,0,1,1,2,2,3,3,4,4,5,5,7,7,9,9,10,10,11,11,14,14,16,16,17,17,18,18,27,27],"right_children":[2,4,6,8,10,12,-1,14,-1,16,18,20,-1,-1,22,-1,24,26,28,-1,-1,-1,-1,-1,-1,-1,-1,30,-1,-1,-1],"split_conditions":[-3.7942958E0,-5.885175E-1,-1.8976051E0,-5.6815106E-1,-1.7369457E0,-2.4655647E0,-3.4010255E-1,2.619721E0,2.2368727E0,8.998609E-1,3.1097198E0,1.1783829E0,-3.33899E-1,1.9595807E0,-3.1412978E0,-1.9717865E-1,-1.8765883E0,-1.6309944E0,-2.2807172E-1,1.031924E-1,1.2464937E0,-2.0330039E-1,1.1686186E-1,-2.9089732E-2,1.3380867E0,-2.9089732E-2,-3.3392906E-1,-2.2701316E0,4.0876502E-1,-2.6301134E-1,-2.9089732E-2],"split_indices":[14,7,17,26,10,16,0,27,0,4,4,4,0,0,1,0,24,10,21,0,0,0,0,0,0,0,0,3,0,0,0],"split_type":[0,0,0,0,0,0,0,0,0,0,0,0,0,0,0,0,0,0,0,0,0,0,0,0,0,0,0,0,0,0,0],"sum_hessian":[2.4048496E4,9.4359566E1,2.3954137E4,3.4408524E1,5.9951046E1,5.2034973E1,2.3902102E4,7.8105235E0,2.6598E1,5.3829284E0,5.4568115E1,4.2219048E0,4.781307E1,5.277381E0,2.5331428E0,1.372119E0,4.0108094E0,4.907964E1,5.488476E0,1.7943095E0,2.4275951E0,1.4776666E0,1.0554762E0,1.0554762E0,2.9553332E0,1.0554762E0,4.8024166E1,4.4329996E0,1.0554762E0,3.3775237E0,1.0554762E0],"tree_param":{"num_deleted":"0","num_feature":"30","num_nodes":"31","size_leaf_vector":"1"}},{"base_weights":[-1.0803808E0,6.54684E-1,-1.0926094E0,1.4737524E0,-8.975109E-1,-6.6972435E-1,-3.2807526E-1,1.5775381E0,5.340752E-2,-9.9609524E-1,2.430581E-1,1.3665824E0,-3.209707E-1,5.429009E-1,1.2222663E0,-7.980094E-1,4.325036E-1,-1.0513493E0,5.3588834E-2,1.8227143E0,-2.1085446E-1,1.3891699E0,2.0477502E-1,-3.621373E-2,-2.8404486E-1,-2.8677596E-2,-1.073913E0,3.4731165E-1,7.3807615E-1,2.2499551E-1,5.147132E-1,3.1786332E-1,-2.1957701E-1,-3.2946268E-1,-5.6687687E-2,-2.0900011E-1,3.6535448E-1],"categories":[],"categories_nodes":[],"categories_segments":[],"categories_sizes":[],"default_left":[0,0,0,0,0,0,0,0,0,0,0,0,0,0,0,0,0,0,0,0,0,0,0,0,0,0,0,0,0,0,0,0,0,0,0,0,0],"id":1,"left_children":[1,3,5,7,9,11,-1,13,15,17,-1,19,-1,-1,21,23,-1,25,-1,27,-1,29,31,-1,-1,-1,33,35,-1,-1,-1,-1,-1,-1,-1,-1,-1],"loss_changes":[3.9163672E2,1.6605437E2,6.8066406E0,1.2474365E1,8.446465E0,3.784878E1,0E0,4.3327637E0,9.231023E0,3.0015411E0,0E0,8.618312E0,0E0,0E0,5.5645256E0,3.776672E-1,0E0,7.933235E-1,0E0,5.398308E0,0E0,4.8527985E0,5.6005917E0,0E0,0E0,0E0,6.630783E-1,3.7295048E0,0E0,0E0,0E0,0E0,0E0,0E0,0E0,0E0,0E0],"parents":[2147483647,0,0,1,1,2,2,3,3,4,4,5,5,7,7,8,8,9,9,11,11,14,14,15,15,17,17,19,19,21,21,22,22,26,26,27,27],"right_children":[2,4,6,8,10,12,-1,14,16,18,-1,20,-1,-1,22,24,-1,26,-1,28,-1,30,32,-1,-1,-1,34,36,-1,-1,-1,-1,-1,-1,-1,-1,-1],"split_conditions":[-3.7942958E0,-1.6309944E0,-1.8976051E0,5.3120786E-1,1.8108344E0,-2.2921624E0,-3.2807526E-1,9.31737E-1,2.760182E0,2.1900315E0,2.430581E-1,7.9644805E-1,-3.209707E-1,5.429009E-1,-2.482834E0,7.6095665E-1,4.325036E-1,-4.4171515E-1,5.3588834E-2,1.7546934E0,-2.1085446E-1,-4.1187707E-1,7.749615E-1,-3.621373E-2,-2.8404486E-1,-2.8677596E-2,1.2762522E0,-2.9037946E-1,7.3807615E-1,2.2499551E-1,5.147132E-1,3.1786332E-1,-2.1957701E-1,-3.2946268E-1,-5.6687687E-2,-2.0900011E-1,3.6535448E-1],"split_indices":[14,10,17,7,21,12,0,28,4,19,0,28,0,0,3,2,0,11,0,11,0,26,19,0,0,0,24,29,0,0,0,0,0,0,0,0,0],"split_type":[0,0,0,0,0,0,0,0,0,0,0,0,0,0,0,0,0,0,0,0,0,0,0,0,0,0,0,0,0,0,0,0,0,0,0,0,0],"sum_hessian":[1.84236E4,1.2857184E2,1.829503E4,8.419436E1,4.437748E1,4.365252E1,1.8251377E4,7.835801E1,5.836351E0,4.234939E1,2.0280902E0,6.773025E0,3.6879494E1,4.4916306E1,3.34417E1,3.8812096E0,1.9551412E0,4.054724E1,1.8021461E0,5.647463E0,1.1255621E0,2.8415321E1,5.026379E0,1.025379E0,2.8558307E0,1.0559417E0,3.9491302E1,2.1701167E0,3.4773462E0,1.0722802E1,1.769252E1,2.5595522E0,2.466827E0,3.820152E1,1.2897806E0,1.0775759E0,1.0925409E0],"tree_param":{"num_deleted":"0","num_feature":"30","num_nodes":"37","size_leaf_vector":"1"}},{"base_weights":[-1.0512885E0,5.2754337E-1,-1.0642508E0,1.146404E0,-8.2819766E-1,-6.1236787E-1,-3.196109E-1,1.2323875E0,3.308798E-2,2.3418541E-1,-9.289281E-1,9.510311E-1,-3.1078485E-1,1.4286873E0,9.431747E-1,-7.101065E-1,1.009616E0,-1.0265805E0,-2.034984E-1,1.2379769E0,-9.897802E-2,1.473249E0,6.943485E-1,1.07915E0,1.6175702E-1,-2.5842404E-1,-3.007251E-2,4.7334245E-1,1.0677218E-2,-3.143581E-1,-6.4512186E-2,2.543993E-1,-2.6117927E-1,4.1427124E-1,5.4359E-1,1.2216111E-1,4.486672E-1,3.1899172E-1,-6.2980674E-2,1.6071285E-1,4.202344E-1,-1.4103323E-1,3.3481076E-1,-2.0164861E-1,3.1533906E-1],"categories":[],"categories_nodes":[],"categories_segments":[],"categories_sizes":[],"default_left":[0,0,0,0,0,0,0,0,0,0,0,0,0,0,0,0,0,0,0,0,0,0,0,0,0,0,0,0,0,0,0,0,0,0,0,0,0,0,0,0,0,0,0,0,0],"id":2,"left_children":[1,3,5,7,9,11,-1,13,15,-1,17,19,-1,21,23,25,27,29,31,33,-1,35,37,39,41,-1,-1,-1,-1,-1,-1,-1,-1,43,-1,-1,-1,-1,-1,-1,-1,-1,-1,-1,-1],"loss_changes":[2.865E2,9.69695E1,6.3535156E0,7.5211945E0,6.631853E0,2.5208305E1,0E0,2.8141632E0,5.5730367E0,0E0,2.2533092E0,3.4662418E0,0E0,3.423767E-1,3.2872353E0,3.184302E-1,1.7727001E0,2.9942322E-1,4.5057235E0,2.562251E0,0E0,3.0530548E-1,1.6507108E0,4.0693893E0,4.145779E0,0E0,0E0,0E0,0E0,0E0,0E0,0E0,0E0,3.594505E0,0E0,0E0,0E0,0E0,0E0,0E0,0E0,0E0,0E0,0E0,0E0],"parents":[2147483647,0,0,1,1,2,2,3,3,4,4,5,5,7,7,8,8,10,10,11,11,13,13,14,14,15,15,16,16,17,17,18,18,19,19,21,21,22,22,23,23,24,24,33,33],"right_children":[2,4,6,8,10,12,-1,14,16,-1,18,20,-1,22,24,26,28,30,32,34,-1,36,38,40,42,-1,-1,-1,-1,-1,-1,-1,-1,44,-1,-1,-1,-1,-1,-1,-1,-1,-1,-1,-1],"split_conditions":[-3.7942958E0,-1.6309944E0,-1.8976051E0,5.3120786E-1,-1.330827E0,-2.4655647E0,-3.196109E-1,9.31737E-1,2.760182E0,2.3418541E-1,3.1097198E0,7.478885E-1,-3.1078485E-1,1.6506305E0,-2.482834E0,5.472458E-1,-1.1428106E0,1.8108344E0,6.214732E-2,-2.9037946E-1,-9.897802E-2,-1.8765883E0,-8.4775174E-1,-4.1187707E-1,-6.819305E-1,-2.5842404E-1,-3.007251E-2,4.7334245E-1,1.0677218E-2,-3.143581E-1,-6.4512186E-2,2.543993E-1,-2.6117927E-1,1.7546934E0,5.4359E-1,1.2216111E-1,4.486672E-1,3.1899172E-1,-6.2980674E-2,1.6071285E-1,4.202344E-1,-1.4103323E-1,3.3481076E-1,-2.0164861E-1,3.1533906E-1],"split_indices":[14,10,17,7,7,16,0,28,4,0,4,28,0,13,3,15,0,21,15,29,0,24,1,26,6,0,0,0,0,0,0,0,0,11,0,0,0,0,0,0,0,0,0,0,0],"split_type":[0,0,0,0,0,0,0,0,0,0,0,0,0,0,0,0,0,0,0,0,0,0,0,0,0,0,0,0,0,0,0,0,0,0,0,0,0,0,0,0,0,0,0,0,0],"sum_hessian":[1.3970765E4,1.1344382E2,1.385732E4,7.799536E1,3.5448456E1,3.557822E1,1.3821742E4,7.2304214E1,5.691148E0,1.691004E0,3.375745E1,7.3190603E0,2.825916E1,4.0723618E1,3.1580597E1,3.3865852E0,2.3045628E0,2.9386507E1,4.3709426E0,6.0069942E0,1.3120658E0,3.7445126E1,3.2784925E0,2.6575207E1,5.0053906E0,2.382919E0,1.0036663E0,1.064E0,1.2405627E0,2.8351877E1,1.0346291E0,1.591389E0,2.7795537E0,3.1739492E0,2.833045E0,1.1621705E0,3.6282955E1,2.2035627E0,1.07493E0,1.0871653E1,1.5703554E1,3.3166583E0,1.6887321E0,1.152477E0,2.0214722E0],"tree_param":{"num_deleted":"0","num_feature":"30","num_nodes":"45","size_leaf_vector":"1"}},{"base_weights":[-1.0296497E0,4.5225406E-1,-1.0435057E0,9.803557E-1,-7.315309E-1,-5.58706E-1,-1.0447879E0,1.02274E0,-1.842281E-1,1.489612E-1,-9.873499E-1,7.498278E-1,-3.0220833E-1,-3.1357574E-1,-8.5390764E-1,1.0689917E0,-5.8194753E-2,1.1080359E0,-6.6994005E-1,-2.6491567E-2,-3.1148553E-1,-8.011219E-2,9.8992467E-1,-9.1213083E-1,4.8415564E-2,4.0952715E-1,8.406257E-1,-2.4424922E-1,2.2606726E-1,7.0849076E-2,4.4310153E-1,-2.401237E-1,-3.0108249E-2,4.1234322E-2,4.1854185E-1,-3.499693E-1,-3.0232778E-1,1.2016732E-1,3.279467E-1,2.4927648E-2,-6.1669457E-3,2.383865E-1,-2.4647723E-1],"categories":[],"categories_nodes":[],"categories_segments":[],"categories_sizes":[],"default_left":[0,0,0,0,0,0,0,0,0,0,0,0,0,0,0,0,0,0,0,0,0,0,0,0,0,0,0,0,0,0,0,0,0,0,0,0,0,0,0,0,0,0,0],"id":3,"left_children":[1,3,5,7,9,11,13,15,-1,17,19,21,-1,-1,23,25,27,29,31,-1,-1,-1,33,35,-1,-1,37,-1,-1,-1,-1,-1,-1,39,-1,41,-1,-1,-1,-1,-1,-1,-1],"loss_changes":[2.168125E2,6.216909E1,5.9052734E0,5.250595E0,7.106468E0,1.8183647E1,3.0273438E-2,3.41214E0,0E0,6.887765E0,1.0106449E0,2.2548738E0,0E0,0E0,1.9643154E0,3.200882E0,2.882705E0,9.317589E-1,2.7964926E-1,0E0,0E0,0E0,2.5596642E0,1.2182713E0,0E0,0E0,3.8861141E0,0E0,0E0,0E0,0E0,0E0,0E0,9.643439E-3,0E0,3.7731647E0,0E0,0E0,0E0,0E0,0E0,0E0,0E0],"parents":[2147483647,0,0,1,1,2,2,3,3,4,4,5,5,6,6,7,7,9,9,10,10,11,11,14,14,15,15,16,16,17,17,18,18,22,22,23,23,26,26,33,33,35,35],"right_children":[2,4,6,8,10,12,14,16,-1,18,20,22,-1,-1,24,26,28,30,32,-1,-1,-1,34,36,-1,-1,38,-1,-1,-1,-1,-1,-1,40,-1,42,-1,-1,-1,-1,-1,-1,-1],"split_conditions":[-3.7942958E0,-1.9602003E0,-1.8976051E0,9.4772774E-1,-1.8746795E-1,-2.2921624E0,3.3744016E0,2.2125952E0,-1.842281E-1,7.956786E-1,-1.8605763E0,-7.180792E-1,-3.0220833E-1,-3.1357574E-1,2.0569092E-1,5.6744087E-1,-2.886281E0,-6.350339E-1,-4.86506E-1,-2.6491567E-2,-3.1148553E-1,-8.011219E-2,-7.654181E-1,-5.445061E-1,4.8415564E-2,4.0952715E-1,-4.1187707E-1,-2.4424922E-1,2.2606726E-1,7.0849076E-2,4.4310153E-1,-2.401237E-1,-3.0108249E-2,7.1369183E-1,4.1854185E-1,1.4504856E-1,-3.0232778E-1,1.2016732E-1,3.279467E-1,2.4927648E-2,-6.1669457E-3,2.383865E-1,-2.4647723E-1],"split_indices":[14,12,17,10,15,12,4,16,0,7,10,20,0,0,1,28,3,15,15,0,0,0,6,16,0,0,26,0,0,0,0,0,0,22,0,3,0,0,0,0,0,0,0],"split_type":[0,0,0,0,0,0,0,0,0,0,0,0,0,0,0,0,0,0,0,0,0,0,0,0,0,0,0,0,0,0,0,0,0,0,0,0,0,0,0,0,0,0,0],"sum_hessian":[1.0535104E4,9.729813E1,1.0437805E4,6.740137E1,2.9896765E1,2.8686401E1,1.0409118E4,6.600535E1,1.3960178E0,6.8247323E0,2.3072033E1,7.152974E0,2.1533428E1,1.0379379E4,2.9739288E1,6.3307556E1,2.6977906E0,2.9807193E0,3.844013E0,1.3836272E0,2.1688406E1,1.3448763E0,5.808098E0,2.8222446E1,1.5168417E0,2.539839E1,3.7909164E1,1.3953534E0,1.3024371E0,1.374008E0,1.6067114E0,2.7978473E0,1.0461658E0,2.0680742E0,3.7400234E0,4.7803493E0,2.3442097E1,1.4765111E1,2.3144054E1,1.027381E0,1.0406933E0,1.1950873E0,3.5852618E0],"tree_param":{"num_deleted":"0","num_feature":"30","num_nodes":"43","size_leaf_vector":"1"}},{"base_weights":[-1.0128601E0,3.8570613E-1,-1.02768E0,8.2274115E-1,-6.772958E-1,-5.091675E-1,-1.029157E0,6.186064E-1,1.2333285E0,1.051288E-1,-9.415613E-1,6.228058E-1,-2.9458582E-1,-3.0892938E-1,-7.9590327E-1,7.713259E-1,-3.0079228E-1,4.9257036E-2,3.8542727E-1,3.0804542E-1,-4.9677154E-1,-2.204442E-2,-3.0170345E-1,9.381726E-1,-8.204052E-2,8.013227E-2,-8.6758864E-1,9.379571E-1,1.473686E-1,-2.3818745E-1,9.427653E-2,3.57557E-1,2.529058E-2,-1.9183323E-1,1.3713063E-1,-9.439489E-1,-9.100321E-2,3.1884277E-1,-1.6944948E-1,-2.1628778E-1,2.6480448E-1,-2.965216E-1,-2.4710828E-2,1.3957323E-1,-1.6917655E-1],"categories":[],"categories_nodes":[],"categories_segments":[],"categories_sizes":[],"default_left":[0,0,0,0,0,0,0,0,0,0,0,0,0,0,0,0,0,0,0,0,0,0,0,0,0,0,0,0,0,0,0,0,0,0,0,0,0,0,0,0,0,0,0,0,0],"id":4,"left_children":[1,3,5,7,9,11,13,15,17,19,21,23,-1,-1,25,27,-1,-1,-1,-1,29,-1,-1,31,33,-1,35,37,39,-1,-1,-1,-1,-1,-1,41,43,-1,-1,-1,-1,-1,-1,-1,-1],"loss_changes":[1.6449951E2,3.94625E1,5.475586E0,4.248974E0,5.2573233E0,1.3579958E1,2.8710938E-1,1.1159121E1,8.2557297E-1,4.503424E0,9.696598E-1,1.7998893E0,0E0,0E0,2.1136122E0,3.9062824E0,0E0,0E0,0E0,0E0,1.4615035E0,0E0,0E0,1.0769053E0,1.2886796E0,0E0,1.300003E0,6.325735E0,6.628882E0,0E0,0E0,0E0,0E0,0E0,0E0,7.2953224E-1,1.103886E0,0E0,0E0,0E0,0E0,0E0,0E0,0E0,0E0],"parents":[2147483647,0,0,1,1,2,2,3,3,4,4,5,5,6,6,7,7,8,8,9,9,10,10,11,11,14,14,15,15,20,20,23,23,24,24,26,26,27,27,28,28,35,35,36,36],"right_children":[2,4,6,8,10,12,14,16,18,20,22,24,-1,-1,26,28,-1,-1,-1,-1,30,-1,-1,32,34,-1,36,38,40,-1,-1,-1,-1,-1,-1,42,44,-1,-1,-1,-1,-1,-1,-1,-1],"split_conditions":[-3.7942958E0,-1.8771628E0,-1.8976051E0,1.0636431E-2,-1.8746795E-1,-2.4655647E0,3.3744016E0,2.6002782E-3,-5.475028E-1,4.310116E-1,-1.8605763E0,3.4702224E-1,-2.9458582E-1,-3.0892938E-1,-2.4605575E0,-1.2792422E0,-3.0079228E-1,4.9257036E-2,3.8542727E-1,3.0804542E-1,3.1603935E-1,-2.204442E-2,-3.0170345E-1,-2.047329E0,-1.6040738E-1,8.013227E-2,1.5021098E0,2.0355883E0,2.760182E0,-2.3818745E-1,9.427653E-2,3.57557E-1,2.529058E-2,-1.9183323E-1,1.3713063E-1,1.7857829E0,3.9114794E-1,3.1884277E-1,-1.6944948E-1,-2.1628778E-1,2.6480448E-1,-2.965216E-1,-2.4710828E-2,1.3957323E-1,-1.6917655E-1],"split_indices":[14,12,17,29,15,16,4,29,2,7,10,28,0,0,19,7,0,0,0,0,28,0,0,10,20,0,28,25,4,0,0,0,0,0,0,24,7,0,0,0,0,0,0,0,0],"split_type":[0,0,0,0,0,0,0,0,0,0,0,0,0,0,0,0,0,0,0,0,0,0,0,0,0,0,0,0,0,0,0,0,0,0,0,0,0,0,0,0,0,0,0,0,0],"sum_hessian":[7.916366E3,8.2744835E1,7.8336216E3,5.879734E1,2.3947496E1,2.3231829E1,7.8103896E3,4.094637E1,1.7850971E1,6.198237E0,1.774926E1,6.75095E0,1.6480879E1,7.786694E3,2.3695734E1,3.7900433E1,3.0459354E0,1.0117002E0,1.6839272E1,2.1697466E0,4.02849E0,1.3684074E0,1.6380852E1,4.4354024E0,2.3155477E0,1.3247737E0,2.237096E1,2.9515041E1,8.385392E0,2.9635825E0,1.0649077E0,3.1143148E0,1.3210875E0,1.0470229E0,1.2685248E0,2.0171972E1,2.1989875E0,2.7521336E1,1.9937055E0,3.8538814E0,4.531511E0,1.9042215E1,1.1297557E0,1.0179279E0,1.1810596E0],"tree_param":{"num_deleted":"0","num_feature":"30","num_nodes":"45","size_leaf_vector":"1"}},{"base_weights":[-9.9904996E-1,3.301288E-1,-1.0149285E0,6.9766486E-1,-6.682887E-1,-4.6079856E-1,-1.0166433E0,-2.7071145E-1,7.6146936E-1,2.2804022E-1,-9.0920454E-1,5.129559E-1,-2.866718E-1,-3.061629E-1,-9.443675E-1,-2.3075126E-1,1.4955609E-1,7.992613E-1,-1.4750634E-1,3.227272E-1,-1.6667408E-1,-2.9611033E-1,-2.816195E-2,-5.5061962E-2,7.686192E-1,-9.772176E-1,-2.3323432E-1,9.548453E-1,3.9491534E-1,3.0838847E-1,-3.0868204E-2,-1.9786106E-1,-9.8673177E-1,-7.8680694E-1,1.755622E0,3.078455E-1,4.996564E-2,-1.6557388E-2,3.5299817E-1,-2.2812971E-1,2.937409E-1,-2.9699335E-1,-1.1457843E-2,-2.8178847E-1,1.404362E-1,1.0342337E0,-7.313823E-2],"categories":[],"categories_nodes":[],"categories_segments":[],"categories_sizes":[],"default_left":[0,0,0,0,0,0,0,0,0,0,0,0,0,0,0,0,0,0,0,0,0,0,0,0,0,0,0,0,0,0,0,0,0,0,0,0,0,0,0,0,0,0,0,0,0,0,0],"id":5,"left_children":[1,3,5,7,9,11,13,15,17,19,21,23,-1,-1,25,-1,-1,27,-1,-1,-1,-1,-1,-1,29,31,33,35,37,-1,-1,39,41,43,45,-1,-1,-1,-1,-1,-1,-1,-1,-1,-1,-1,-1],"loss_changes":[1.2562402E2,2.6459074E1,5.105957E0,3.435358E0,4.433276E0,1.009115E1,6.850586E-1,1.9050672E0,2.7275867E0,3.8827224E0,8.988466E-1,1.4524996E0,0E0,0E0,7.0784607E0,0E0,0E0,2.6572628E0,0E0,0E0,0E0,0E0,0E0,0E0,1.3669643E0,2.019165E0,1.803176E1,1.7473087E0,5.380819E0,0E0,0E0,3.9576635E0,8.698425E-1,2.8357368E0,1.3025917E1,0E0,0E0,0E0,0E0,0E0,0E0,0E0,0E0,0E0,0E0,0E0,0E0],"parents":[2147483647,0,0,1,1,2,2,3,3,4,4,5,5,6,6,7,7,8,8,9,9,10,10,11,11,14,14,17,17,24,24,25,25,26,26,27,27,28,28,31,31,32,32,33,33,34,34],"right_children":[2,4,6,8,10,12,14,16,18,20,22,24,-1,-1,26,-1,-1,28,-1,-1,-1,-1,-1,-1,30,32,34,36,38,-1,-1,40,42,44,46,-1,-1,-1,-1,-1,-1,-1,-1,-1,-1,-1,-1],"split_conditions":[-3.7942958E0,-1.6309944E0,-1.8976051E0,8.1085074E-1,-3.7296668E-1,-2.2921624E0,1.7247576E0,-2.7326766E-1,1.3939954E0,-1.4337958E0,6.197711E-1,-9.268342E-1,-2.866718E-1,-3.061629E-1,1.8055354E0,-2.3075126E-1,1.4955609E-1,2.619721E0,-1.4750634E-1,3.227272E-1,-1.6667408E-1,-2.9611033E-1,-2.816195E-2,-5.5061962E-2,-1.3703704E0,-2.2950654E0,4.2762133E-1,1.6506305E0,-2.842929E-1,3.0838847E-1,-3.0868204E-2,-1.798947E-1,2.4519887E0,1.4899268E0,-3.2468307E-1,3.078455E-1,4.996564E-2,-1.6557388E-2,3.5299817E-1,-2.2812971E-1,2.937409E-1,-2.9699335E-1,-1.1457843E-2,-2.8178847E-1,1.404362E-1,1.0342337E0,-7.313823E-2],"split_indices":[14,10,17,4,20,12,4,29,0,12,19,6,0,0,17,0,0,27,0,0,0,0,0,0,10,14,1,13,22,0,0,21,22,19,29,0,0,0,0,0,0,0,0,0,0,0,0],"split_type":[0,0,0,0,0,0,0,0,0,0,0,0,0,0,0,0,0,0,0,0,0,0,0,0,0,0,0,0,0,0,0,0,0,0,0,0,0,0,0,0,0,0,0,0,0,0,0],"sum_hessian":[5.935391E3,6.9833954E1,5.865557E3,5.126396E1,1.8569992E1,1.8927803E1,5.8466294E3,2.9684358E0,4.8295525E1,3.9452205E0,1.4624771E1,6.3647404E0,1.2563063E1,5.5348667E3,3.1176263E2,1.8012874E0,1.1671484E0,4.7233295E1,1.0622315E0,1.7160267E0,2.2291937E0,1.3158131E1,1.4666401E0,1.784737E0,4.5800033E0,2.976393E2,1.4123323E1,3.3125732E1,1.410756E1,3.391313E0,1.1886904E0,3.8525584E0,2.9378674E2,1.1520994E1,2.6023285E0,3.0101149E1,3.0245852E0,9.542602E0,4.5649586E0,2.846117E0,1.0064412E0,2.9274127E2,1.0454762E0,1.04970045E1,1.0239902E0,1.0173028E0,1.5850259E0],"tree_param":{"num_deleted":"0","num_feature":"30","num_nodes":"47","size_leaf_vector":"1"}},{"base_weights":[-9.864102E-1,2.7666497E-1,-1.0039191E0,6.024307E-1,-5.8170754E-1,-4.142342E-1,-1.0059369E0,4.115248E-1,1.0375983E0,3.5859054E-1,-8.276207E-1,4.439799E-1,-2.7935404E-1,-3.0332825E-1,-9.1271305E-1,5.383969E-1,-2.709346E-1,3.3177987E-1,9.277332E-2,2.6061407E-1,-1.8823855E-1,5.3335134E-2,-2.7996498E-1,-7.586288E-2,6.74566E-1,-9.5421475E-1,-1.9133593E-1,6.731513E-1,-3.438725E-1,9.397595E-1,-1.1430388E-2,-1.5530367E-1,-9.664935E-1,-7.2659737E-1,9.207342E-1,2.5620282E-1,3.0888323E-2,-3.2266578E-1,2.1726346E-1,3.1851858E-1,8.715284E-2,-2.2172058E-1,2.8850904E-1,-2.9122698E-1,-3.845811E-3,-2.735501E-1,1.4568552E-1,-8.506129E-2,8.138959E-1],"categories":[],"categories_nodes":[],"categories_segments":[],"categories_sizes":[],"default_left":[0,0,0,0,0,0,0,0,0,0,0,0,0,0,0,0,0,0,0,0,0,0,0,0,0,0,0,0,0,0,0,0,0,0,0,0,0,0,0,0,0,0,0,0,0,0,0,0,0],"id":6,"left_children":[1,3,5,7,9,11,13,15,17,19,21,23,-1,-1,25,27,-1,-1,-1,-1,-1,-1,-1,-1,29,31,33,35,37,39,-1,41,43,45,47,-1,-1,-1,-1,-1,-1,-1,-1,-1,-1,-1,-1,-1,-1],"loss_changes":[9.865576E1,1.757724E1,4.804199E0,3.3238049E0,4.333402E0,7.80595E0,1.1796875E0,5.9968834E0,3.1049252E-1,2.7164297E0,1.6671438E0,1.2859037E0,0E0,0E0,6.9868927E0,3.8882704E0,0E0,0E0,0E0,0E0,0E0,0E0,0E0,0E0,1.0730035E0,2.0687866E0,9.168279E0,2.6985264E0,4.481078E0,1.136899E-2,0E0,3.720241E0,8.924866E-1,2.7327237E0,1.173488E1,0E0,0E0,0E0,0E0,0E0,0E0,0E0,0E0,0E0,0E0,0E0,0E0,0E0,0E0],"parents":[2147483647,0,0,1,1,2,2,3,3,4,4,5,5,6,6,7,7,8,8,9,9,10,10,11,11,14,14,15,15,24,24,25,25,26,26,27,27,28,28,29,29,31,31,32,32,33,33,34,34],"right_children":[2,4,6,8,10,12,14,16,18,20,22,24,-1,-1,26,28,-1,-1,-1,-1,-1,-1,-1,-1,30,32,34,36,38,40,-1,42,44,46,48,-1,-1,-1,-1,-1,-1,-1,-1,-1,-1,-1,-1,-1,-1],"split_conditions":[-3.7942958E0,3.1689933E-1,-1.8976051E0,1.0636431E-2,-1.881061E0,-2.4655647E0,1.7247576E0,2.6002782E-3,1.9056641E0,1.0049292E0,-3.5320053E0,-3.4475344E-1,-2.7935404E-1,-3.0332825E-1,1.8055354E0,1.9026254E0,-2.709346E-1,3.3177987E-1,9.277332E-2,2.6061407E-1,-1.8823855E-1,5.3335134E-2,-2.7996498E-1,-7.586288E-2,-1.6309944E0,-2.2950654E0,4.2762133E-1,-1.2792422E0,5.8585095E-1,1.223244E0,-1.1430388E-2,-8.408362E-2,2.921384E0,1.0069335E0,1.0666478E-1,2.5620282E-1,3.0888323E-2,-3.2266578E-1,2.1726346E-1,3.1851858E-1,8.715284E-2,-2.2172058E-1,2.8850904E-1,-2.9122698E-1,-3.845811E-3,-2.735501E-1,1.4568552E-1,-8.506129E-2,8.138959E-1],"split_indices":[14,7,17,29,9,16,4,29,28,0,12,29,0,0,17,25,0,0,0,0,0,0,0,0,10,14,1,7,26,27,0,21,26,23,28,0,0,0,0,0,0,0,0,0,0,0,0,0,0],"split_type":[0,0,0,0,0,0,0,0,0,0,0,0,0,0,0,0,0,0,0,0,0,0,0,0,0,0,0,0,0,0,0,0,0,0,0,0,0,0,0,0,0,0,0,0,0,0,0,0,0],"sum_hessian":[4.447467E3,6.060607E1,4.386861E3,4.414901E1,1.6457064E1,1.5662953E1,4.3711978E3,3.2039227E1,1.2109781E1,3.3167205E0,1.3140344E1,5.9410295E0,9.721924E0,4.1327236E3,2.3847392E2,2.9757845E1,2.2813818E0,1.0597151E1,1.51263E0,2.264306E0,1.0524145E0,1.1839589E0,1.1956385E1,1.4530594E0,4.48797E0,2.2519539E2,1.327854E1,2.6020584E1,3.737262E0,3.0386097E0,1.4493603E0,3.615304E0,2.2158008E2,9.19799E0,4.0805492E0,1.9376738E1,6.643847E0,2.2137575E0,1.5235045E0,2.0232108E0,1.015399E0,2.5966122E0,1.0186919E0,2.2057616E2,1.0039209E0,8.193721E0,1.0042697E0,2.944107E0,1.1364421E0],"tree_param":{"num_deleted":"0","num_feature":"30","num_nodes":"49","size_leaf_vector":"1"}},{"base_weights":[-9.743554E-1,2.3510323E-1,-9.9356204E-1,4.930636E-1,-5.9127903E-1,-3.6054614E-1,-9.959926E-1,-1.6087988E-1,6.061889E-1,-8.7430036E-1,1.4290082E-1,3.7636656E-1,-2.6993862E-1,-1.0028018E0,-8.766996E-1,4.2013103E-1,-2.8627244E-1,3.018619E-1,8.794383E-1,-6.801955E-2,-2.7724078E-1,-3.978083E-1,2.5196427E-1,5.659177E-1,-9.943702E-2,-3.0120945E-1,-7.676641E-1,-9.2836344E-1,-1.4983357E-1,2.4872622E-1,-1.18223734E-1,1.0954283E0,-1.14479005E-1,1.036331E0,-1.13469355E-1,-1.76216E-1,9.472828E-4,-3.416831E-2,7.7242327E-1,-9.0636873E-1,1.3989787E-1,-1.2077674E-1,-9.440607E-1,-6.146E-1,8.128195E-1,3.5621747E-1,9.119631E-2,-2.0430939E-1,2.2434968E-1,6.1385177E-2,3.2841635E-1,3.297574E-2,2.8120196E-1,-2.8694654E-1,-2.7016426E-2,-2.1685596E-1,2.8730258E-1,-2.8487003E-1,-3.2749183E-3,1.6218169E-1,-2.7096298E-1,4.820169E-1,-1.8639918E-1],"categories":[],"categories_nodes":[],"categories_segments":[],"categories_sizes":[],"default_left":[0,0,0,0,0,0,0,0,0,0,0,0,0,0,0,0,0,0,0,0,0,0,0,0,0,0,0,0,0,0,0,0,0,0,0,0,0,0,0,0,0,0,0,0,0,0,0,0,0,0,0,0,0,0,0,0,0,0,0,0,0,0,0],"id":7,"left_children":[1,3,5,7,9,11,13,15,17,19,21,23,-1,25,27,29,-1,31,33,-1,-1,35,-1,37,-1,-1,39,41,43,-1,-1,45,47,49,-1,-1,-1,-1,51,53,-1,55,57,59,61,-1,-1,-1,-1,-1,-1,-1,-1,-1,-1,-1,-1,-1,-1,-1,-1,-1,-1],"loss_changes":[7.764526E1,1.1568841E1,4.6882324E0,3.1203985E0,2.8344684E0,5.9478955E0,1.7753906E0,3.5429811E0,2.64882E0,9.8736286E-2,2.0253468E0,1.0824414E0,0E0,1.2060547E-1,6.78508E0,1.8681259E0,0E0,6.106387E0,3.9324722E0,0E0,0E0,2.4553627E-1,0E0,8.783736E-1,0E0,0E0,3.8957386E0,2.0658722E0,6.5075717E0,0E0,0E0,9.9321365E-2,6.75225E0,5.637169E-1,0E0,0E0,0E0,0E0,3.8283038E-1,6.740637E-1,0E0,3.565683E0,8.555603E-1,3.6974924E0,6.466735E0,0E0,0E0,0E0,0E0,0E0,0E0,0E0,0E0,0E0,0E0,0E0,0E0,0E0,0E0,0E0,0E0,0E0,0E0],"parents":[2147483647,0,0,1,1,2,2,3,3,4,4,5,5,6,6,7,7,8,8,9,9,10,10,11,11,13,13,14,14,15,15,17,17,18,18,21,21,23,23,26,26,27,27,28,28,31,31,32,32,33,33,38,38,39,39,41,41,42,42,43,43,44,44],"right_children":[2,4,6,8,10,12,14,16,18,20,22,24,-1,26,28,30,-1,32,34,-1,-1,36,-1,38,-1,-1,40,42,44,-1,-1,46,48,50,-1,-1,-1,-1,52,54,-1,56,58,60,62,-1,-1,-1,-1,-1,-1,-1,-1,-1,-1,-1,-1,-1,-1,-1,-1,-1,-1],"split_conditions":[-3.7942958E0,6.20537E-1,-1.8976051E0,1.2192212E0,2.760182E0,-2.4655647E0,1.7247576E0,1.3082724E0,-2.2791316E-1,2.0810895E-2,1.6930457E0,7.478885E-1,-2.6993862E-1,2.4503274E0,1.8055354E0,-9.835216E-1,-2.8627244E-1,-6.9412094E-1,1.807665E0,-6.801955E-2,-2.7724078E-1,-4.3395436E-1,2.5196427E-1,-3.4895143E-1,-9.943702E-2,-3.0120945E-1,-2.6342258E-2,-2.2950654E0,2.66599E-1,2.4872622E-1,-1.18223734E-1,7.9965657E-1,1.0636431E-2,2.0031495E0,-1.13469355E-1,-1.76216E-1,9.472828E-4,-3.416831E-2,4.1319302E-1,-3.930685E-1,1.3989787E-1,-1.5792131E-2,2.921384E0,-4.984689E-1,-1.7729612E-1,3.5621747E-1,9.119631E-2,-2.0430939E-1,2.2434968E-1,6.1385177E-2,3.2841635E-1,3.297574E-2,2.8120196E-1,-2.8694654E-1,-2.7016426E-2,-2.1685596E-1,2.8730258E-1,-2.8487003E-1,-3.2749183E-3,1.6218169E-1,-2.7096298E-1,4.820169E-1,-1.8639918E-1],"split_indices":[14,7,17,4,4,16,4,27,26,5,2,28,0,7,17,7,0,26,18,0,0,22,0,29,0,0,5,14,25,0,0,0,29,4,0,0,0,0,22,1,0,21,26,26,20,0,0,0,0,0,0,0,0,0,0,0,0,0,0,0,0,0,0],"split_type":[0,0,0,0,0,0,0,0,0,0,0,0,0,0,0,0,0,0,0,0,0,0,0,0,0,0,0,0,0,0,0,0,0,0,0,0,0,0,0,0,0,0,0,0,0,0,0,0,0,0,0,0,0,0,0,0,0,0,0,0,0,0,0],"sum_hessian":[3.331458E3,5.1901897E1,3.279556E3,3.9862057E1,1.2039843E1,1.3115578E1,3.2664404E3,5.816495E0,3.4045563E1,8.552181E0,3.487661E0,5.669694E0,7.4458838E0,3.0830542E3,1.8338618E2,3.6291573E0,2.1873379E0,1.710257E1,1.6942991E1,1.0076945E0,7.544487E0,2.2057247E0,1.2819362E0,4.6302266E0,1.039467E0,3.063763E3,1.929137E1,1.7095772E2,1.2428463E1,2.4036136E0,1.2255439E0,5.323889E0,1.1778681E1,1.5220271E1,1.72272E0,1.1819599E0,1.0237648E0,1.1832993E0,3.4469275E0,1.7580734E1,1.7106357E0,3.425347E0,1.6753238E2,8.625601E0,3.802862E0,4.3214564E0,1.0024326E0,7.235239E0,4.543442E0,1.2939144E0,1.3926357E1,1.0191807E0,2.427747E0,1.6401978E1,1.1787573E0,2.4097607E0,1.0155865E0,1.6653215E2,1.0002303E0,1.5496705E0,7.0759306E0,2.3703656E0,1.4324963E0],"tree_param":{"num_deleted":"0","num_feature":"30","num_nodes":"63","size_leaf_vector":"1"}},{"base_weights":[-9.6155304E-1,2.0739682E-1,-9.8303163E-1,4.491808E-1,-5.3844917E-1,-3.190055E-1,-9.859142E-1,7.928773E-1,2.2155064E-1,2.1049374E-1,-7.9954016E-1,3.300147E-1,-2.6048264E-1,-9.94875E-1,-8.352989E-1,2.9925025E-1,1.03020586E-1,1.8610028E-4,8.123488E-1,2.571763E-1,-1.2137847E-1,-2.723589E-1,-1.8711273E-2,2.3472123E-1,-3.2599956E-2,-9.965085E-1,-7.0848155E-1,-8.9315164E-1,-6.1543513E-2,-8.987557E-2,1.7354847E-1,5.5812675E-1,-4.3969557E-1,2.7775785E-1,3.791586E-2,3.812611E-1,-1.6545884E-1,-8.2623315E-1,-2.9968193E-1,-8.731398E-1,1.02173425E-1,-4.5511056E-2,-9.191672E-1,6.482668E-1,-2.5544778E-1,-9.066325E-2,2.723959E-1,-3.3332112E-1,1.2633307E-2,-3.8970098E-2,2.0889834E-1,1.950254E-1,-2.7035517E-1,-1.60129E-2,-2.8083685E-1,-2.1744968E-1,2.5880122E-1,-2.874294E-1,-1.896948E-1,4.146793E-1,-2.0598297E-1],"categories":[],"categories_nodes":[],"categories_segments":[],"categories_sizes":[],"default_left":[0,0,0,0,0,0,0,0,0,0,0,0,0,0,0,0,0,0,0,0,0,0,0,0,0,0,0,0,0,0,0,0,0,0,0,0,0,0,0,0,0,0,0,0,0,0,0,0,0,0,0,0,0,0,0,0,0,0,0,0,0],"id":8,"left_children":[1,3,5,7,9,11,13,15,17,19,21,23,-1,25,27,-1,29,31,33,-1,-1,-1,-1,-1,35,37,39,41,43,-1,-1,45,47,-1,-1,49,-1,51,-1,53,-1,55,57,59,-1,-1,-1,-1,-1,-1,-1,-1,-1,-1,-1,-1,-1,-1,-1,-1,-1],"loss_changes":[6.295215E1,8.522426E0,4.3828125E0,2.579949E0,2.4553812E0,4.5950994E0,2.4665527E0,1.8234434E0,2.952437E0,1.8645087E0,6.525512E-1,1.053173E0,0E0,3.7036133E-1,6.365509E0,0E0,9.8434323E-1,4.5215454E0,3.6210155E-1,0E0,0E0,0E0,0E0,0E0,1.1632608E0,1.2060547E-1,3.148862E0,2.8993835E0,6.7490215E0,0E0,0E0,2.718962E0,3.3790998E0,0E0,0E0,5.832413E-1,0E0,4.785534E0,0E0,7.012081E-1,0E0,3.7247024E0,8.387222E-1,7.2090397E0,0E0,0E0,0E0,0E0,0E0,0E0,0E0,0E0,0E0,0E0,0E0,0E0,0E0,0E0,0E0,0E0,0E0],"parents":[2147483647,0,0,1,1,2,2,3,3,4,4,5,5,6,6,7,7,8,8,9,9,10,10,11,11,13,13,14,14,16,16,17,17,18,18,24,24,25,25,26,26,27,27,28,28,31,31,32,32,35,35,37,37,39,39,41,41,42,42,43,43],"right_children":[2,4,6,8,10,12,14,16,18,20,22,24,-1,26,28,-1,30,32,34,-1,-1,-1,-1,-1,36,38,40,42,44,-1,-1,46,48,-1,-1,50,-1,52,-1,54,-1,56,58,60,-1,-1,-1,-1,-1,-1,-1,-1,-1,-1,-1,-1,-1,-1,-1,-1,-1],"split_conditions":[-3.7942958E0,-1.6309944E0,-1.8976051E0,5.397176E-1,-3.7296668E-1,-2.2921624E0,1.7247576E0,3.1689933E-1,1.0636431E-2,-5.5102414E-1,6.197711E-1,-2.2303145E-2,-2.6048264E-1,2.4503274E0,1.9092946E0,2.9925025E-1,3.9021978E-1,4.04701E-1,-2.482834E0,2.571763E-1,-1.2137847E-1,-2.723589E-1,-1.8711273E-2,2.3472123E-1,1.0892397E0,-1.2673244E0,-2.6342258E-2,-2.2950654E0,1.0541109E-1,-8.987557E-2,1.7354847E-1,6.510403E-1,-7.476479E-1,2.7775785E-1,3.791586E-2,4.1319302E-1,-1.6545884E-1,-1.568168E0,-2.9968193E-1,2.1334202E0,1.02173425E-1,-7.185646E-2,1.0073719E0,8.269553E-1,-2.5544778E-1,-9.066325E-2,2.723959E-1,-3.3332112E-1,1.2633307E-2,-3.8970098E-2,2.0889834E-1,1.950254E-1,-2.7035517E-1,-1.60129E-2,-2.8083685E-1,-2.1744968E-1,2.5880122E-1,-2.874294E-1,-1.896948E-1,4.146793E-1,-2.0598297E-1],"split_indices":[14,10,17,28,20,12,4,7,29,13,19,8,0,7,17,0,28,19,3,0,0,0,0,0,2,20,5,14,8,0,0,27,22,0,0,22,0,13,0,29,0,21,5,2,0,0,0,0,0,0,0,0,0,0,0,0,0,0,0,0,0],"split_type":[0,0,0,0,0,0,0,0,0,0,0,0,0,0,0,0,0,0,0,0,0,0,0,0,0,0,0,0,0,0,0,0,0,0,0,0,0,0,0,0,0,0,0,0,0,0,0,0,0,0,0,0,0,0,0,0,0,0,0,0,0],"sum_hessian":[2.4981895E3,4.491803E1,2.4532715E3,3.4221924E1,1.0696106E1,1.1086141E1,2.4421853E3,1.264547E1,2.1576452E1,2.8150084E0,7.8810973E0,5.2646174E0,5.821523E0,2.2997556E3,1.424297E2,9.408725E0,3.2367444E0,1.6423203E1,5.15325E0,1.180263E0,1.6347454E0,6.6694994E0,1.2115979E0,1.8272771E0,3.4373405E0,2.2842478E3,1.5507762E1,1.3237767E2,1.005203E1,1.9529858E0,1.2837586E0,7.121529E0,9.301674E0,4.1215134E0,1.0317369E0,2.0598469E0,1.3774935E0,3.6954376E1,2.2472935E3,1.3548854E1,1.9589072E0,4.0237865E0,1.283539E2,5.389047E0,4.662983E0,2.0981572E0,5.0233717E0,3.3406222E0,5.9610515E0,1.0095946E0,1.0502523E0,1.4147267E0,3.553965E1,1.0985122E0,1.2450342E1,2.417431E0,1.6063555E0,1.1095526E2,1.7398628E1,3.4542098E0,1.934837E0],"tree_param":{"num_deleted":"0","num_feature":"30","num_nodes":"61","size_leaf_vector":"1"}},{"base_weights":[-9.4729054E-1,1.832839E-1,-9.7148216E-1,3.9079675E-1,-5.274803E-1,-6.581244E-1,-9.8155457E-1,2.2130057E-1,8.000434E-1,7.293455E-2,-2.5746295E-1,-7.976235E-1,-5.685455E-2,-9.8403496E-1,-2.7467036E-1,5.7644176E-1,-1.01826444E-1,2.854975E-1,-2.0195767E-2,-1.8635705E-1,2.0870428E-1,-8.693637E-1,1.1500587E-1,-5.8608365E-1,3.5862535E-1,-9.929536E-1,-8.8290364E-1,1.9518615E-1,-6.713767E-1,8.0954623E-1,-1.7985307E-1,-8.5214806E-1,1.9937259E-1,1.1519087E-1,-9.065364E-1,4.44605E-1,-2.1479337E-1,-2.4646562E-1,7.737783E-2,6.8523616E-1,-1.8673047E-1,-2.9858404E-1,-7.1187097E-1,-9.04556E-1,-2.6549095E-1,-7.141321E-3,-2.4060841E-1,5.6897283E-2,2.7732944E-1,-1.9092084E-1,1.3589776E-1,8.552988E-2,-4.458845E-1,-1.4883E-1,3.0881014E-1,-2.8471738E-1,1.0679419E-2,4.3970993E-1,-5.700402E-2,7.3819175E-2,-2.6168922E-1,-1.3572735E-1,-2.7892023E-1,2.968382E-1,-2.4452703E-1],"categories":[],"categories_nodes":[],"categories_segments":[],"categories_sizes":[],"default_left":[0,0,0,0,0,0,0,0,0,0,0,0,0,0,0,0,0,0,0,0,0,0,0,0,0,0,0,0,0,0,0,0,0,0,0,0,0,0,0,0,0,0,0,0,0,0,0,0,0,0,0,0,0,0,0,0,0,0,0,0,0,0,0,0,0],"id":9,"left_children":[1,3,5,7,9,11,13,15,17,19,-1,21,23,25,27,29,31,-1,-1,-1,-1,33,35,37,39,41,43,-1,45,47,49,51,53,-1,55,-1,-1,-1,-1,57,-1,-1,59,61,63,-1,-1,-1,-1,-1,-1,-1,-1,-1,-1,-1,-1,-1,-1,-1,-1,-1,-1,-1,-1],"loss_changes":[5.1546387E1,6.1334996E0,5.158325E0,2.0204797E0,1.9504788E0,5.0128384E0,2.8499756E0,2.788104E0,1.2339106E0,2.2902298E0,0E0,3.2997265E0,2.9440472E0,7.2265625E-1,3.230212E0,2.1696622E0,3.17642E0,0E0,0E0,0E0,0E0,2.4645119E0,6.1103535E0,1.3740566E0,2.8570995E0,3.5168457E-1,1.8014069E0,0E0,4.731927E-1,4.6261883E-1,1.3062227E0,3.3085928E0,6.4580584E0,0E0,1.8131294E0,0E0,0E0,0E0,0E0,4.4911127E0,0E0,0E0,2.799715E0,1.2542038E0,5.3514776E0,0E0,0E0,0E0,0E0,0E0,0E0,0E0,0E0,0E0,0E0,0E0,0E0,0E0,0E0,0E0,0E0,0E0,0E0,0E0,0E0],"parents":[2147483647,0,0,1,1,2,2,3,3,4,4,5,5,6,6,7,7,8,8,9,9,11,11,12,12,13,13,14,14,15,15,16,16,21,21,22,22,23,23,24,24,25,25,26,26,28,28,29,29,30,30,31,31,32,32,34,34,39,39,42,42,43,43,44,44],"right_children":[2,4,6,8,10,12,14,16,18,20,-1,22,24,26,28,30,32,-1,-1,-1,-1,34,36,38,40,42,44,-1,46,48,50,52,54,-1,56,-1,-1,-1,-1,58,-1,-1,60,62,64,-1,-1,-1,-1,-1,-1,-1,-1,-1,-1,-1,-1,-1,-1,-1,-1,-1,-1,-1,-1],"split_conditions":[-3.7942958E0,-1.4337958E0,-1.8694028E0,1.0636431E-2,4.310116E-1,1.5363235E0,3.3744016E0,5.5922633E-1,2.9922686E0,-1.270476E0,-2.5746295E-1,3.8081923E-1,-2.2807172E-1,1.1430328E0,-5.445061E-1,8.9526516E-1,7.623038E-1,2.854975E-1,-2.0195767E-2,-1.8635705E-1,2.0870428E-1,-1.6830509E0,-1.2581304E0,1.5504569E0,1.2251103E0,2.0220823E0,1.5211583E0,1.9518615E-1,-7.5528556E-1,1.4306376E0,5.1273566E-1,8.037066E-1,-2.842929E-1,1.1519087E-1,1.5147836E0,4.44605E-1,-2.1479337E-1,-2.4646562E-1,7.737783E-2,-2.748669E-1,-1.8673047E-1,-2.9858404E-1,-1.1140606E0,-2.4771867E0,-5.6700375E-2,-7.141321E-3,-2.4060841E-1,5.6897283E-2,2.7732944E-1,-1.9092084E-1,1.3589776E-1,8.552988E-2,-4.458845E-1,-1.4883E-1,3.0881014E-1,-2.8471738E-1,1.0679419E-2,4.3970993E-1,-5.700402E-2,7.3819175E-2,-2.6168922E-1,-1.3572735E-1,-2.7892023E-1,2.968382E-1,-2.4452703E-1],"split_indices":[14,12,14,29,7,4,4,8,19,3,0,29,21,4,16,7,8,0,0,0,0,7,10,11,5,7,18,0,14,4,26,21,22,0,0,0,0,0,0,29,0,0,26,12,8,0,0,0,0,0,0,0,0,0,0,0,0,0,0,0,0,0,0,0,0],"split_type":[0,0,0,0,0,0,0,0,0,0,0,0,0,0,0,0,0,0,0,0,0,0,0,0,0,0,0,0,0,0,0,0,0,0,0,0,0,0,0,0,0,0,0,0,0,0,0,0,0,0,0,0,0,0,0,0,0,0,0,0,0,0,0,0,0],"sum_hessian":[1.8771587E3,3.9187492E1,1.8379713E3,3.068032E1,8.507173E0,5.9305065E1,1.7786661E3,2.2784498E1,7.895822E0,3.2984874E0,5.208686E0,4.7871864E1,1.1433201E1,1.7720562E3,6.610019E0,1.0481063E1,1.2303435E1,6.638268E0,1.2575544E0,1.5610316E0,1.7374557E0,4.442695E1,3.4449162E0,4.847695E0,6.5855055E0,1.6203417E3,1.5171445E2,1.7914734E0,4.818546E0,7.9578815E0,2.5231817E0,3.0002584E0,9.303177E0,1.0109771E0,4.3415974E1,1.0062066E0,2.4387095E0,3.8110635E0,1.0366315E0,5.1668973E0,1.4186083E0,1.6045204E3,1.5821368E1,1.4612485E2,5.5895963E0,1.0074288E0,3.8111172E0,1.6587218E0,6.2991595E0,1.4624877E0,1.0606941E0,1.2710978E0,1.7291607E0,5.2806644E0,4.022512E0,4.153406E1,1.8819115E0,2.3747315E0,2.7921655E0,2.1929648E0,1.3628404E1,8.7086935E0,1.3741615E2,1.4586321E0,4.1309643E0],"tree_param":{"num_deleted":"0","num_feature":"30","num_nodes":"65","size_leaf_vector":"1"}},{"base_weights":[-9.303586E-1,1.573968E-1,-9.5757097E-1,2.9212686E-1,-2.192268E-1,-5.930706E-1,-9.7047853E-1,4.236133E-1,-1.4562033E-1,-7.396395E-1,-5.762516E-2,-9.7368145E-1,-2.3208599E-1,2.7670428E-1,1.7028888E-1,4.4158232E-1,-5.5287963E-1,-8.2476276E-1,9.442937E-2,4.8717323E-1,-3.7642488E-1,-9.856122E-1,-8.435017E-1,-6.280393E-1,1.742767E-1,6.0709965E-1,-5.3837307E-2,2.0472321E-1,1.9019896E-2,-2.3478867E-1,-4.346501E-3,9.850451E-2,-8.8844275E-1,-2.1589491E-1,4.0326822E-1,9.1469765E-1,-1.6010906E-1,-7.114591E-1,3.526565E-1,-9.887142E-1,-6.4757466E-1,-6.275894E-1,-9.5490533E-1,-2.3208052E-1,-2.4238778E-3,2.6207522E-1,-1.0145073E-1,-1.0774088E-1,1.982853E-1,-2.8312662E-1,7.561095E-3,-1.14023695E-2,4.7273389E-1,-2.8094627E-2,-2.4658713E-1,-7.587017E-2,2.3855563E-1,-1.2167875E-1,-2.9685527E-1,1.4539424E-1,-2.3233575E-1,-2.1475933E-1,1.3405117E-1,-7.018999E-2,-2.90165E-1],"categories":[],"categories_nodes":[],"categories_segments":[],"categories_sizes":[],"default_left":[0,0,0,0,0,0,0,0,0,0,0,0,0,0,0,0,0,0,0,0,0,0,0,0,0,0,0,0,0,0,0,0,0,0,0,0,0,0,0,0,0,0,0,0,0,0,0,0,0,0,0,0,0,0,0,0,0,0,0,0,0,0,0,0,0],"id":10,"left_children":[1,3,5,7,-1,9,11,13,15,17,19,21,23,-1,25,27,29,31,33,35,37,39,41,43,-1,45,47,-1,-1,-1,-1,-1,49,-1,-1,51,-1,53,55,57,59,61,63,-1,-1,-1,-1,-1,-1,-1,-1,-1,-1,-1,-1,-1,-1,-1,-1,-1,-1,-1,-1,-1,-1],"loss_changes":[4.206189E1,4.451366E0,5.9240723E0,1.8727679E0,0E0,3.867136E0,2.9257812E0,2.9323764E0,2.1602416E0,2.8488083E0,2.2312348E0,1.2290039E0,2.6403391E0,0E0,1.7403387E0,3.0621898E-1,6.2879574E-1,2.8996944E0,5.5575385E0,2.5780973E0,2.2056086E0,6.278076E-1,2.2464294E0,4.660883E-1,0E0,1.8058946E0,2.9534683E0,0E0,0E0,0E0,0E0,0E0,1.7383518E0,0E0,0E0,2.4176393E0,0E0,3.1994343E-1,1.0554407E0,1.5893555E-1,2.3713188E0,4.4156837E0,4.4935608E-1,0E0,0E0,0E0,0E0,0E0,0E0,0E0,0E0,0E0,0E0,0E0,0E0,0E0,0E0,0E0,0E0,0E0,0E0,0E0,0E0,0E0,0E0],"parents":[2147483647,0,0,1,1,2,2,3,3,5,5,6,6,7,7,8,8,9,9,10,10,11,11,12,12,14,14,15,15,16,16,17,17,18,18,19,19,20,20,21,21,22,22,23,23,25,25,26,26,32,32,35,35,37,37,38,38,39,39,40,40,41,41,42,42],"right_children":[2,4,6,8,-1,10,12,14,16,18,20,22,24,-1,26,28,30,32,34,36,38,40,42,44,-1,46,48,-1,-1,-1,-1,-1,50,-1,-1,52,-1,54,56,58,60,62,64,-1,-1,-1,-1,-1,-1,-1,-1,-1,-1,-1,-1,-1,-1,-1,-1,-1,-1,-1,-1,-1,-1],"split_conditions":[-3.7942958E0,-3.7124496E-2,-1.8694028E0,6.5772676E-1,-2.192268E-1,1.5363235E0,3.3744016E0,5.6744087E-1,-5.8622533E-1,3.8081923E-1,-1.0430034E0,1.1430328E0,5.8907884E-1,2.7670428E-1,4.04701E-1,-4.655611E-2,5.233833E-1,-2.2072427E0,-1.9549668E-1,1.2251103E0,2.5833574E-1,2.0220823E0,1.01240046E-4,1.1507553E0,1.742767E-1,8.2975006E-1,2.3066092E0,2.0472321E-1,1.9019896E-2,-2.3478867E-1,-4.346501E-3,9.850451E-2,1.5147836E0,-2.1589491E-1,4.0326822E-1,1.312358E0,-1.6010906E-1,-1.7528483E-1,1.7347394E-1,-3.6036253E0,-1.3220692E0,1.9092946E0,-2.9664392E0,-2.3208052E-1,-2.4238778E-3,2.6207522E-1,-1.0145073E-1,-1.0774088E-1,1.982853E-1,-2.8312662E-1,7.561095E-3,-1.14023695E-2,4.7273389E-1,-2.8094627E-2,-2.4658713E-1,-7.587017E-2,2.3855563E-1,-1.2167875E-1,-2.9685527E-1,1.4539424E-1,-2.3233575E-1,-2.1475933E-1,1.3405117E-1,-7.018999E-2,-2.90165E-1],"split_indices":[14,10,14,16,0,4,4,28,13,29,15,4,11,0,19,0,1,12,1,5,21,7,8,0,0,22,21,0,0,0,0,0,0,0,0,18,0,23,24,23,13,17,15,0,0,0,0,0,0,0,0,0,0,0,0,0,0,0,0,0,0,0,0,0,0],"split_type":[0,0,0,0,0,0,0,0,0,0,0,0,0,0,0,0,0,0,0,0,0,0,0,0,0,0,0,0,0,0,0,0,0,0,0,0,0,0,0,0,0,0,0,0,0,0,0,0,0,0,0,0,0,0,0,0,0,0,0,0,0,0,0,0,0],"sum_hessian":[1.4148961E3,3.441585E1,1.3804803E3,3.0465424E1,3.9504273E0,4.8818745E1,1.3316615E3,2.3453089E1,7.0123343E0,3.802791E1,1.0790835E1,1.3255929E3,6.0686646E0,7.01038E0,1.6442709E1,2.837228E0,4.175106E0,3.45164E1,3.5115108E0,3.7885003E0,7.0023346E0,1.2082847E3,1.173082E2,4.2340827E0,1.8345815E0,4.9963436E0,1.1446365E1,1.2419206E0,1.5953076E0,2.608381E0,1.566725E0,1.5888797E0,3.2927517E1,2.3832948E0,1.128216E0,2.7435474E0,1.0449528E0,4.814227E0,2.1881075E0,1.1953903E3,1.289439E1,4.2184193E1,7.512401E1,3.2282786E0,1.0058044E0,3.9567237E0,1.0396202E0,8.369265E0,3.0771008E0,3.101679E1,1.910728E0,1.5099782E0,1.2335694E0,1.0107108E0,3.8035164E0,1.1048036E0,1.0833039E0,2.3405075E0,1.1930498E3,1.0152032E0,1.1879188E1,3.9289856E1,2.8943367E0,1.5972085E0,7.3526794E1],"tree_param":{"num_deleted":"0","num_feature":"30","num_nodes":"65","size_leaf_vector":"1"}},{"base_weights":[-9.0928406E-1,1.3767849E-1,-9.4062203E-1,-4.6379697E-1,3.146482E-1,-5.249258E-1,-9.5707643E-1,4.3291632E-2,-7.5391537E-1,3.722178E-1,-1.6234209E-1,4.001333E-1,-6.0327625E-1,-9.770569E-1,-7.640924E-1,1.5540941E-1,-1.8167245E-1,-6.901961E-2,-2.489378E-1,1.2514903E-1,5.881713E-1,-8.331681E-2,2.3006311E-1,-8.317218E-1,-3.0500397E-1,-5.2264166E-1,-9.810189E-1,-7.907604E-1,2.1981601E-1,2.6694703E-1,-2.0619017E-1,8.7696594E-1,-1.0837117E-1,-2.805213E-1,-2.589765E-5,4.664723E-1,-5.283045E-1,2.1682043E-1,-2.6460508E-1,-2.952409E-1,-6.219651E-1,-4.4582766E-1,-9.087469E-1,-1.5115593E-1,1.7770001E-1,2.3973716E-2,2.906188E-1,1.2746425E-1,-1.5508129E-1,2.0765801E-1,-1.749305E-1,-1.1237157E-1,4.0086553E-1,1.1216248E-1,-1.9974853E-1,1.2731314E-1,-2.6682833E-1,9.307028E-2,-2.5147393E-1,-1.5498398E-1,-2.8752714E-1],"categories":[],"categories_nodes":[],"categories_segments":[],"categories_sizes":[],"default_left":[0,0,0,0,0,0,0,0,0,0,0,0,0,0,0,0,0,0,0,0,0,0,0,0,0,0,0,0,0,0,0,0,0,0,0,0,0,0,0,0,0,0,0,0,0,0,0,0,0,0,0,0,0,0,0,0,0,0,0,0,0],"id":11,"left_children":[1,3,5,7,9,11,13,15,17,19,-1,21,23,25,27,-1,-1,-1,-1,29,31,-1,-1,33,35,37,39,41,-1,-1,43,45,47,-1,49,51,53,-1,-1,-1,55,57,59,-1,-1,-1,-1,-1,-1,-1,-1,-1,-1,-1,-1,-1,-1,-1,-1,-1,-1],"loss_changes":[3.5317444E1,3.5564997E0,6.6210938E0,1.1637197E0,1.4504933E0,3.275957E0,3.1115723E0,1.4669076E0,5.6385994E-3,1.2254529E0,0E0,1.1751785E0,2.403594E0,1.1132202E0,4.5097427E0,0E0,0E0,0E0,0E0,3.3824506E0,2.654059E0,0E0,0E0,1.8484278E0,3.4322538E0,5.0889893E0,3.887329E-1,3.5514488E0,0E0,0E0,2.585223E0,5.883746E-1,1.2258812E0,0E0,1.7666011E0,3.9255624E0,2.0865264E0,0E0,0E0,0E0,3.291905E0,8.194215E0,8.9725494E-1,0E0,0E0,0E0,0E0,0E0,0E0,0E0,0E0,0E0,0E0,0E0,0E0,0E0,0E0,0E0,0E0,0E0,0E0],"parents":[2147483647,0,0,1,1,2,2,3,3,4,4,5,5,6,6,7,7,8,8,9,9,11,11,12,12,13,13,14,14,19,19,20,20,23,23,24,24,25,25,26,26,27,27,30,30,31,31,32,32,34,34,35,35,36,36,40,40,41,41,42,42],"right_children":[2,4,6,8,10,12,14,16,18,20,-1,22,24,26,28,-1,-1,-1,-1,30,32,-1,-1,34,36,38,40,42,-1,-1,44,46,48,-1,50,52,54,-1,-1,-1,56,58,60,-1,-1,-1,-1,-1,-1,-1,-1,-1,-1,-1,-1,-1,-1,-1,-1,-1,-1],"split_conditions":[-3.7942958E0,1.2192212E0,-1.8694028E0,-1.3670241E-2,1.3939954E0,-2.047329E0,1.1430328E0,1.4220984E0,-8.4448266E-1,-2.2791316E-1,-1.6234209E-1,4.0179935E-1,2.0569092E-1,-1.8019946E0,2.4519887E0,1.5540941E-1,-1.8167245E-1,-6.901961E-2,-2.489378E-1,-7.127916E-1,6.5772676E-1,-8.331681E-2,2.3006311E-1,1.097609E0,1.4062531E0,-1.016884E0,2.0220823E0,-5.6726407E-2,2.1981601E-1,2.6694703E-1,-1.0523149E0,-1.0934529E0,-7.0220435E-1,-2.805213E-1,-3.6643392E-1,-4.0668628E-1,-1.4835794E0,2.1682043E-1,-2.6460508E-1,-2.952409E-1,-1.1140606E0,-4.5389566E-1,-3.4327415E-1,-1.5115593E-1,1.7770001E-1,2.3973716E-2,2.906188E-1,1.2746425E-1,-1.5508129E-1,2.0765801E-1,-1.749305E-1,-1.1237157E-1,4.0086553E-1,1.1216248E-1,-1.9974853E-1,1.2731314E-1,-2.6682833E-1,9.307028E-2,-2.5147393E-1,-1.5498398E-1,-2.8752714E-1],"split_indices":[14,4,14,5,0,10,4,27,13,26,0,22,1,20,22,0,0,0,0,26,16,0,0,13,17,16,7,6,0,0,6,27,13,0,26,7,15,0,0,0,26,12,29,0,0,0,0,0,0,0,0,0,0,0,0,0,0,0,0,0,0],"split_type":[0,0,0,0,0,0,0,0,0,0,0,0,0,0,0,0,0,0,0,0,0,0,0,0,0,0,0,0,0,0,0,0,0,0,0,0,0,0,0,0,0,0,0,0,0,0,0,0,0,0,0,0,0,0,0,0,0,0,0,0,0],"sum_hessian":[1.0714854E3,3.1041267E1,1.040444E3,6.68838E0,2.4352888E1,4.0868343E1,9.995757E2,2.7436397E0,3.94474E0,2.3347351E1,1.0055373E0,2.8704817E0,3.7997864E1,9.0211316E2,9.746255E1,1.7008548E0,1.0427849E0,1.0092227E0,2.9355173E0,1.1625887E1,1.1721464E1,1.0930045E0,1.7774774E0,2.0504831E1,1.7493032E1,8.946264E0,8.931669E2,9.621994E1,1.2426035E0,3.0050976E0,8.62079E0,8.102885E0,3.6185782E0,1.8127905E1,2.376926E0,3.682265E0,1.3810767E1,1.777039E0,7.1692247E0,8.837528E2,9.41406E0,2.5742E1,7.047794E1,6.5486794E0,2.0721102E0,1.0297098E0,7.073176E0,1.5524386E0,2.0661395E0,1.0011882E0,1.3757378E0,2.1614628E0,1.5208023E0,1.5994555E0,1.2211311E1,1.7970662E0,7.6169934E0,8.867217E0,1.6874783E1,9.206233E0,6.127171E1],"tree_param":{"num_deleted":"0","num_feature":"30","num_nodes":"61","size_leaf_vector":"1"}},{"base_weights":[-8.843591E-1,-2.0261623E-1,-9.4075865E-1,3.0206698E-1,-5.075514E-1,-9.667753E-1,-7.0680606E-1,1.2235949E-1,8.5449004E-1,-8.8816476E-1,-2.2238316E-1,-4.565576E-1,-9.7194016E-1,-3.2124296E-1,-8.6407256E-1,-1.9614397E-2,6.2481326E-1,4.739641E-2,9.892561E-1,-4.424879E-2,-2.7810225E-1,-3.5156882E-1,3.7048903E-1,-7.753413E-1,2.8665954E-1,-9.760752E-1,-5.552936E-1,6.240575E-1,-4.9153292E-1,-8.962609E-1,8.730748E-3,5.0719345E-1,-2.8894645E-1,3.9471634E-2,2.539716E-1,3.281255E-1,9.230915E-2,-6.716826E-1,2.0383064E-1,-3.9708555E-2,-2.5576693E-1,-2.9528543E-1,-7.801686E-1,3.1068656E-1,-2.574205E-1,3.9711764E-1,-1.7072326E-1,-7.7795744E-1,6.679208E-1,-1.5742598E-1,-9.479418E-1,-1.21615045E-1,2.3340003E-1,8.276952E-2,-1.907656E-1,-2.567415E-1,1.3225617E-1,1.4790526E-1,-1.9873151E-1,1.846642E-2,-2.5903922E-1,-1.5397403E-1,2.976669E-1,6.579935E-2,-2.6436165E-1,4.2944324E-1,-1.8093017E-1,-2.140547E-1,2.2914708E-1,-2.8940862E-1,-7.159102E-2],"categories":[],"categories_nodes":[],"categories_segments":[],"categories_sizes":[],"default_left":[0,0,0,0,0,0,0,0,0,0,0,0,0,0,0,0,0,0,0,0,0,0,0,0,0,0,0,0,0,0,0,0,0,0,0,0,0,0,0,0,0,0,0,0,0,0,0,0,0,0,0,0,0,0,0,0,0,0,0,0,0,0,0,0,0,0,0,0,0,0,0],"id":12,"left_children":[1,3,5,7,9,11,13,15,17,19,21,23,25,27,29,31,33,-1,35,-1,-1,37,-1,39,-1,41,43,45,47,49,-1,51,53,-1,-1,-1,-1,55,57,-1,-1,-1,59,61,-1,-1,-1,63,65,67,69,-1,-1,-1,-1,-1,-1,-1,-1,-1,-1,-1,-1,-1,-1,-1,-1,-1,-1,-1,-1],"loss_changes":[3.1212769E1,9.953237E0,3.906372E0,2.3386915E0,4.1514225E0,1.3373413E0,4.523678E0,1.4202114E0,3.9505672E-1,3.4740257E-1,4.997809E0,4.6387653E0,6.091919E-1,4.2557755E0,1.6259918E0,2.4675875E0,3.6756265E-1,0E0,4.339218E-4,0E0,0E0,4.234047E0,0E0,2.6528883E-1,0E0,2.9412842E-1,2.5965216E0,4.247178E0,7.608742E0,1.9029579E0,0E0,1.7727119E0,2.421507E0,0E0,0E0,0E0,0E0,3.4195423E0,2.629568E0,0E0,0E0,0E0,2.2533035E0,2.2142086E0,0E0,0E0,0E0,2.0034409E0,5.4894495E0,2.959351E0,3.6434555E-1,0E0,0E0,0E0,0E0,0E0,0E0,0E0,0E0,0E0,0E0,0E0,0E0,0E0,0E0,0E0,0E0,0E0,0E0,0E0,0E0],"parents":[2147483647,0,0,1,1,2,2,3,3,4,4,5,5,6,6,7,7,8,8,9,9,10,10,11,11,12,12,13,13,14,14,15,15,16,16,18,18,21,21,23,23,25,25,26,26,27,27,28,28,29,29,31,31,32,32,37,37,38,38,42,42,43,43,47,47,48,48,49,49,50,50],"right_children":[2,4,6,8,10,12,14,16,18,20,22,24,26,28,30,32,34,-1,36,-1,-1,38,-1,40,-1,42,44,46,48,50,-1,52,54,-1,-1,-1,-1,56,58,-1,-1,-1,60,62,-1,-1,-1,64,66,68,70,-1,-1,-1,-1,-1,-1,-1,-1,-1,-1,-1,-1,-1,-1,-1,-1,-1,-1,-1,-1],"split_conditions":[-1.8694028E0,-2.2072427E0,1.1430328E0,2.9366687E-1,-1.8894769E-1,-1.8019946E0,-9.157892E-2,2.3066092E0,5.289762E-3,-1.1161385E0,7.142596E-1,-1.2500476E0,2.0220823E0,-2.692818E0,2.4499717E0,-5.18098E-1,2.4947245E-1,4.739641E-2,1.5021098E0,-4.424879E-2,-2.7810225E-1,1.3347017E0,3.7048903E-1,-1.1393394E0,2.8665954E-1,1.3263191E0,-1.1140606E0,5.711842E-1,1.0073719E0,-2.3081138E0,8.730748E-3,1.6392959E0,5.5922633E-1,3.9471634E-2,2.539716E-1,3.281255E-1,9.230915E-2,-1.9805702E0,-2.8166366E-1,-3.9708555E-2,-2.5576693E-1,-2.9528543E-1,-4.643485E-1,-1.089771E-1,-2.574205E-1,3.9711764E-1,-1.7072326E-1,-1.2131121E0,2.8941983E-1,1.2740664E-1,2.56698E0,-1.21615045E-1,2.3340003E-1,8.276952E-2,-1.907656E-1,-2.567415E-1,1.3225617E-1,1.4790526E-1,-1.9873151E-1,1.846642E-2,-2.5903922E-1,-1.5397403E-1,2.976669E-1,6.579935E-2,-2.6436165E-1,4.2944324E-1,-1.8093017E-1,-2.140547E-1,2.2914708E-1,-2.8940862E-1,-7.159102E-2],"split_indices":[14,12,4,23,1,20,8,21,21,7,29,1,7,12,20,24,24,0,28,0,0,4,0,10,0,17,26,5,5,19,0,11,8,0,0,0,0,14,29,0,0,0,8,9,0,0,0,13,14,17,17,0,0,0,0,0,0,0,0,0,0,0,0,0,0,0,0,0,0,0,0],"split_type":[0,0,0,0,0,0,0,0,0,0,0,0,0,0,0,0,0,0,0,0,0,0,0,0,0,0,0,0,0,0,0,0,0,0,0,0,0,0,0,0,0,0,0,0,0,0,0,0,0,0,0,0,0,0,0,0,0,0,0,0,0,0,0,0,0,0,0,0,0,0,0],"sum_hessian":[8.1573376E2,6.2679012E1,7.5305475E2,2.3611002E1,3.906801E1,6.7487335E2,7.818139E1,1.8737156E1,4.8738456E0,1.582795E1,2.3240059E1,7.659098E0,6.6721423E2,2.353192E1,5.4649467E1,1.5358425E1,3.378731E0,1.1423304E0,3.731515E0,1.0277444E0,1.4800205E1,2.2044682E1,1.1953775E0,6.61636E0,1.0427382E0,6.5932806E2,7.886187E0,3.1852932E0,2.0346626E1,5.2745174E1,1.904295E0,4.896947E0,1.0461478E1,1.5420898E0,1.8366413E0,2.7110775E0,1.0204374E0,1.3851671E1,8.19301E0,1.0003682E0,5.615992E0,6.289474E2,3.0380688E1,2.0362067E0,5.8499804E0,1.9388674E0,1.2464256E0,1.6579866E1,3.7667596E0,3.7127924E0,4.903238E1,1.0068998E0,3.8900473E0,4.058565E0,6.4029136E0,1.2082764E1,1.7689084E0,6.465502E0,1.7275083E0,2.7592003E0,2.7621487E1,1.0335901E0,1.0026165E0,1.449979E0,1.5129888E1,2.2742684E0,1.4924914E0,2.4558628E0,1.2569298E0,4.754922E1,1.4831597E0],"tree_param":{"num_deleted":"0","num_feature":"30","num_nodes":"71","size_leaf_vector":"1"}},{"base_weights":[-8.5373956E-1,-1.6241336E-1,-9.207541E-1,3.0273378E-1,-4.3212107E-1,-9.538019E-1,-6.4753294E-1,6.105378E-1,3.1496517E-2,-1.346573E-1,-7.0687515E-1,-3.878084E-1,-9.6061355E-1,-3.2946268E-1,-8.7110627E-1,7.4797636E-1,-6.662286E-2,2.9943636E-1,-5.6486136E-1,2.1943672E-1,-6.5079373E-1,-8.535756E-1,-1.8626362E-1,-7.4134E-1,2.9056928E-1,-9.660598E-1,-4.9012634E-1,-6.4616245E-1,2.9412043E-1,-9.424321E-1,-3.660303E-1,9.057852E-1,1.0095129E-2,-3.7226003E-2,2.5562057E-1,9.480152E-2,-2.867861E-1,1.1658102E0,-2.965486E-1,-2.4144907E-1,3.2992167E-3,-2.7488968E-1,-1.4510263E-2,2.8017992E-1,-1.883477E-1,-2.4819882E-1,-3.834754E-2,-8.0290365E-1,-2.952912E-1,-2.507439E-1,1.1888731E-1,2.6540148E-1,-8.4420115E-1,8.695498E-1,-5.776289E-1,-2.9156002E-1,-7.91523E-2,2.8056258E-1,-2.2869612E-1,2.98704E-1,7.997364E-2,-1.0951438E-1,1.9705588E-1,-1.6737747E-1,5.9197927E-1,-2.276597E-1,5.399E-2,1.9618012E-1,-8.28079E-2,-1.0640337E-1,-2.794209E-1,4.592044E-1,-2.0351018E-1,6.344707E-2,-2.8101972E-1,-2.5921043E-2,6.5048313E-1,-2.1986498E-1,-1.6736874E-3,-1.5895857E-1,2.9756013E-1],"categories":[],"categories_nodes":[],"categories_segments":[],"categories_sizes":[],"default_left":[0,0,0,0,0,0,0,0,0,0,0,0,0,0,0,0,0,0,0,0,0,0,0,0,0,0,0,0,0,0,0,0,0,0,0,0,0,0,0,0,0,0,0,0,0,0,0,0,0,0,0,0,0,0,0,0,0,0,0,0,0,0,0,0,0,0,0,0,0,0,0,0,0,0,0,0,0,0,0,0,0],"id":13,"left_children":[1,3,5,7,9,11,13,15,17,19,21,23,25,27,29,31,-1,33,35,37,39,41,43,45,-1,47,49,51,53,55,57,59,-1,61,-1,-1,-1,63,65,-1,-1,-1,-1,67,-1,-1,-1,69,-1,-1,-1,71,73,75,77,-1,-1,79,-1,-1,-1,-1,-1,-1,-1,-1,-1,-1,-1,-1,-1,-1,-1,-1,-1,-1,-1,-1,-1,-1,-1],"loss_changes":[2.8896423E1,7.233742E0,4.5411377E0,1.7647426E0,2.8674917E0,1.5843506E0,4.3184853E0,1.3052807E0,2.1526062E0,3.549638E0,1.2622461E0,4.41656E0,8.09906E-1,5.7870126E0,1.0032043E0,9.585209E-1,0E0,1.7468226E0,1.7471337E0,6.109704E0,8.0776405E-1,6.74819E-1,1.2819442E0,2.469039E-1,0E0,6.804199E-1,2.709463E0,3.6735158E0,5.635318E0,3.8589096E-1,1.8194366E0,1.4526796E-1,0E0,1.76125E0,0E0,0E0,0E0,7.180066E0,1.9950583E0,0E0,0E0,0E0,0E0,8.671221E-1,0E0,0E0,0E0,2.844345E0,0E0,0E0,0E0,6.0192633E0,1.7548885E0,8.335598E0,4.1063428E-1,0E0,0E0,2.3194766E0,0E0,0E0,0E0,0E0,0E0,0E0,0E0,0E0,0E0,0E0,0E0,0E0,0E0,0E0,0E0,0E0,0E0,0E0,0E0,0E0,0E0,0E0,0E0],"parents":[2147483647,0,0,1,1,2,2,3,3,4,4,5,5,6,6,7,7,8,8,9,9,10,10,11,11,12,12,13,13,14,14,15,15,17,17,18,18,19,19,20,20,21,21,22,22,23,23,25,25,26,26,27,27,28,28,29,29,30,30,31,31,33,33,37,37,38,38,43,43,47,47,51,51,52,52,53,53,54,54,57,57],"right_children":[2,4,6,8,10,12,14,16,18,20,22,24,26,28,30,32,-1,34,36,38,40,42,44,46,-1,48,50,52,54,56,58,60,-1,62,-1,-1,-1,64,66,-1,-1,-1,-1,68,-1,-1,-1,70,-1,-1,-1,72,74,76,78,-1,-1,80,-1,-1,-1,-1,-1,-1,-1,-1,-1,-1,-1,-1,-1,-1,-1,-1,-1,-1,-1,-1,-1,-1,-1],"split_conditions":[-1.8694028E0,-2.047329E0,1.1430328E0,8.874301E-1,-4.468396E-2,-1.8019946E0,1.01240046E-4,1.6506305E0,-2.482834E0,-5.87209E-1,1.4306376E0,-1.0956721E0,2.0220823E0,3.5682654E-1,1.0142834E0,3.1286797E-1,-6.662286E-2,-2.842929E-1,4.04701E-1,-2.4632427E-1,1.8055354E0,6.662826E-1,7.304909E-1,1.4592278E0,2.9056928E-1,-8.425151E-1,3.2024926E-1,-1.5592432E0,5.5025554E-1,1.218249E0,1.15644E-1,1.1058815E0,1.0095129E-2,1.0636431E-2,2.5562057E-1,9.480152E-2,-2.867861E-1,-7.8732455E-1,1.6795986E0,-2.4144907E-1,3.2992167E-3,-2.7488968E-1,-1.4510263E-2,-3.3834922E-1,-1.883477E-1,-2.4819882E-1,-3.834754E-2,-6.0766554E-1,-2.952912E-1,-2.507439E-1,1.1888731E-1,-3.2280394E-1,-8.784798E-1,1.5746416E-1,1.705199E-1,-2.9156002E-1,-7.91523E-2,9.996699E-3,-2.2869612E-1,2.98704E-1,7.997364E-2,-1.0951438E-1,1.9705588E-1,-1.6737747E-1,5.9197927E-1,-2.276597E-1,5.399E-2,1.9618012E-1,-8.28079E-2,-1.0640337E-1,-2.794209E-1,4.592044E-1,-2.0351018E-1,6.344707E-2,-2.8101972E-1,-2.5921043E-2,6.5048313E-1,-2.1986498E-1,-1.6736874E-3,-1.5895857E-1,2.9756013E-1],"split_indices":[14,10,4,28,15,20,8,13,3,3,4,1,7,17,14,16,0,22,19,26,17,29,5,22,0,14,15,15,14,12,18,26,0,29,0,0,0,24,16,0,0,0,0,10,0,0,0,0,0,0,0,29,16,15,29,0,0,21,0,0,0,0,0,0,0,0,0,0,0,0,0,0,0,0,0,0,0,0,0,0,0],"split_type":[0,0,0,0,0,0,0,0,0,0,0,0,0,0,0,0,0,0,0,0,0,0,0,0,0,0,0,0,0,0,0,0,0,0,0,0,0,0,0,0,0,0,0,0,0,0,0,0,0,0,0,0,0,0,0,0,0,0,0,0,0,0,0,0,0,0,0,0,0,0,0,0,0,0,0,0,0,0,0,0,0],"sum_hessian":[6.259519E2,5.5617867E1,5.7033405E2,2.0368025E1,3.5249844E1,5.0657034E2,6.3763733E1,8.954916E0,1.1413108E1,1.764092E1,1.7608921E1,6.712965E0,4.9985736E2,2.7340683E1,3.642305E1,7.773421E0,1.1814955E0,8.218486E0,3.1946223E0,1.080383E1,6.8370905E0,1.3238851E1,4.370071E0,5.684713E0,1.0282519E0,4.9309607E2,6.7612996E0,1.8107964E1,9.232719E0,3.1157173E1,5.2658763E0,6.147326E0,1.626095E0,5.6867614E0,2.5317242E0,1.0412912E0,2.153331E0,3.3677046E0,7.436125E0,5.3708487E0,1.4662417E0,1.2154117E1,1.084734E0,2.302893E0,2.067178E0,4.6802306E0,1.0044824E0,5.411938E1,4.3897668E2,4.90538E0,1.8559198E0,3.1711483E0,1.4936815E1,5.563112E0,3.669608E0,2.9447668E1,1.7095053E0,2.1119745E0,3.153902E0,4.9004674E0,1.2468585E0,4.184449E0,1.5023121E0,1.1728859E0,2.194819E0,3.4735453E0,3.9625795E0,1.2722652E0,1.0306276E0,1.2896061E1,4.122332E1,1.0891197E0,2.0820286E0,1.100102E0,1.3836714E1,3.7421215E0,1.8209902E0,2.6651373E0,1.0044708E0,1.1064385E0,1.0055358E0],"tree_param":{"num_deleted":"0","num_feature":"30","num_nodes":"81","size_leaf_vector":"1"}},{"base_weights":[-8.1790906E-1,-1.6652042E-1,-8.988334E-1,-4.8823065E-1,1.5465748E-1,-9.4497323E-1,-6.2271726E-1,-1.3071525E-1,-8.1298804E-1,3.994948E-1,-1.8370561E-1,-9.549317E-1,-3.3726278E-1,-1.9142176E-1,-8.0680174E-1,5.2603513E-1,-6.9541764E-1,-1.884583E-1,-2.7646375E-1,2.038295E-2,7.409034E-1,1.336738E-1,-6.85424E-1,-9.6513563E-1,-4.629097E-1,-6.851052E-1,2.3681459E-1,7.1192527E-1,-5.4175216E-1,2.8435114E-1,-8.668517E-1,-3.714061E-1,6.0910386E-1,4.5059822E-2,-2.5047043E-1,9.641441E-2,-1.6160996E-1,2.0582339E-1,-2.8055555E-1,-7.336081E-2,1.0239452E0,-1.8880065E-1,4.076074E-1,-2.3950441E-1,-3.475602E-2,-9.6772134E-1,-4.300665E-1,3.0463433E-1,-2.6204652E-1,-2.4432205E-1,-1.0523681E-3,-5.030078E-1,1.6795013E0,2.8653097E-1,-7.9445386E-1,-1.5815198E-1,2.9813802E-1,-9.0677166E-1,4.1569803E-2,-2.2737943E-1,1.4236891E-1,-2.093478E-1,1.2982926E-1,3.465996E-1,3.8252234E-2,1.8956149E-1,-1.2821577E-1,-2.9110208E-1,-1.2984249E-1,-1.8037306E-1,-3.1454218E-4,-1.8190847E-1,-3.6332533E-2,-4.6726535E-3,7.004122E-1,3.745231E-1,-1.9730447E-1,3.173373E-2,-2.6694158E-1,-1.2089185E-1,-2.8492078E-1],"categories":[],"categories_nodes":[],"categories_segments":[],"categories_sizes":[],"default_left":[0,0,0,0,0,0,0,0,0,0,0,0,0,0,0,0,0,0,0,0,0,0,0,0,0,0,0,0,0,0,0,0,0,0,0,0,0,0,0,0,0,0,0,0,0,0,0,0,0,0,0,0,0,0,0,0,0,0,0,0,0,0,0,0,0,0,0,0,0,0,0,0,0,0,0,0,0,0,0,0,0],"id":14,"left_children":[1,3,5,7,9,11,13,15,17,19,21,23,25,27,29,31,33,35,-1,37,39,41,43,45,47,49,-1,51,53,55,57,59,-1,-1,-1,-1,-1,-1,61,-1,63,-1,65,-1,-1,67,69,-1,-1,-1,-1,71,73,75,77,-1,-1,79,-1,-1,-1,-1,-1,-1,-1,-1,-1,-1,-1,-1,-1,-1,-1,-1,-1,-1,-1,-1,-1,-1,-1],"loss_changes":[2.5481293E1,5.7541895E0,4.918701E0,3.1095347E0,2.4146883E0,1.9077759E0,4.9922924E0,5.6971498E0,7.973175E-1,2.1479511E0,2.0899732E0,1.3705139E0,3.4746935E0,6.937449E0,3.203041E0,1.0494983E1,1.0878677E0,7.7631104E-1,0E0,1.9848611E0,2.6951032E0,2.0381157E0,2.3076415E-1,7.3150635E-2,6.5173073E0,5.484657E-1,0E0,8.153512E0,3.468844E0,2.3125086E0,1.8521156E0,2.1138468E0,0E0,0E0,0E0,0E0,0E0,0E0,2.347221E0,0E0,6.773734E-1,0E0,1.5581989E0,0E0,0E0,7.199097E-2,2.5646478E-1,0E0,0E0,0E0,0E0,6.5732956E-2,4.1361856E0,4.776289E0,1.135376E0,0E0,0E0,5.156708E-1,0E0,0E0,0E0,0E0,0E0,0E0,0E0,0E0,0E0,0E0,0E0,0E0,0E0,0E0,0E0,0E0,0E0,0E0,0E0,0E0,0E0,0E0,0E0],"parents":[2147483647,0,0,1,1,2,2,3,3,4,4,5,5,6,6,7,7,8,8,9,9,10,10,11,11,12,12,13,13,14,14,15,15,16,16,17,17,19,19,20,20,21,21,22,22,23,23,24,24,25,25,27,27,28,28,29,29,30,30,31,31,38,38,40,40,42,42,45,45,46,46,51,51,52,52,53,53,54,54,57,57],"right_children":[2,4,6,8,10,12,14,16,18,20,22,24,26,28,30,32,34,36,-1,38,40,42,44,46,48,50,-1,52,54,56,58,60,-1,-1,-1,-1,-1,-1,62,-1,64,-1,66,-1,-1,68,70,-1,-1,-1,-1,72,74,76,78,-1,-1,80,-1,-1,-1,-1,-1,-1,-1,-1,-1,-1,-1,-1,-1,-1,-1,-1,-1,-1,-1,-1,-1,-1,-1],"split_conditions":[-1.6849223E0,1.4306376E0,9.8439986E-1,-2.4632427E-1,9.9069846E-1,2.0220823E0,-5.633937E-1,5.5343915E-2,-2.047329E0,-4.1187707E-1,-3.2468307E-1,1.6571741E0,8.380598E-1,3.49684E-2,-3.5023084E-1,-5.016595E-2,-9.642181E-1,-8.6897063E-1,-2.7646375E-1,-7.127916E-1,-7.180792E-1,1.54277375E-2,7.3608273E-1,2.4951391E0,-3.6944366E-1,8.5364324E-1,2.3681459E-1,-1.9096047E-1,-1.8716528E0,3.2640647E-2,2.6379504E0,1.6195199E-1,6.0910386E-1,4.5059822E-2,-2.5047043E-1,9.641441E-2,-1.6160996E-1,2.0582339E-1,1.0636431E-2,-7.336081E-2,4.7610757E-1,-1.8880065E-1,9.690453E-1,-2.3950441E-1,-3.475602E-2,2.1751406E0,2.2790948E-1,3.0463433E-1,-2.6204652E-1,-2.4432205E-1,-1.0523681E-3,4.2494118E-1,-4.6434268E-1,-6.378668E-2,-6.820432E-1,-1.5815198E-1,2.9813802E-1,-3.4327415E-1,4.1569803E-2,-2.2737943E-1,1.4236891E-1,-2.093478E-1,1.2982926E-1,3.465996E-1,3.8252234E-2,1.8956149E-1,-1.2821577E-1,-2.9110208E-1,-1.2984249E-1,-1.8037306E-1,-3.1454218E-4,-1.8190847E-1,-3.6332533E-2,-4.6726535E-3,7.004122E-1,3.745231E-1,-1.9730447E-1,3.173373E-2,-2.6694158E-1,-1.2089185E-1,-2.8492078E-1],"split_indices":[14,4,4,26,17,7,12,27,10,26,29,17,19,2,29,27,7,1,0,26,20,28,7,26,8,14,0,5,19,28,19,21,0,0,0,0,0,0,29,0,24,0,1,0,0,11,18,0,0,0,0,22,6,6,21,0,0,29,0,0,0,0,0,0,0,0,0,0,0,0,0,0,0,0,0,0,0,0,0,0,0],"split_type":[0,0,0,0,0,0,0,0,0,0,0,0,0,0,0,0,0,0,0,0,0,0,0,0,0,0,0,0,0,0,0,0,0,0,0,0,0,0,0,0,0,0,0,0,0,0,0,0,0,0,0,0,0,0,0,0,0,0,0,0,0,0,0,0,0,0,0,0,0,0,0,0,0,0,0,0,0,0,0,0,0],"sum_hessian":[4.8523416E2,5.3958763E1,4.312754E2,2.6697195E1,2.7261568E1,3.674509E2,6.382451E1,1.3375272E1,1.3321923E1,1.57118845E1,1.1549685E1,3.6096448E2,6.4864078E0,1.9702635E1,4.4121872E1,6.2153163E0,7.159956E0,2.3779073E0,1.09440155E1,7.9469833E0,7.7649007E0,7.5238066E0,4.025878E0,3.5268854E2,8.275936E0,5.255669E0,1.2307385E0,5.217321E0,1.4485314E1,2.1066787E0,4.2015194E1,4.364594E0,1.8507222E0,1.0029248E0,6.157031E0,1.0018847E0,1.3760226E0,2.0756717E0,5.8713117E0,1.7629727E0,6.0019283E0,1.644856E0,5.8789506E0,3.0245574E0,1.0013206E0,3.5018768E2,2.500846E0,1.4786384E0,6.797298E0,4.253847E0,1.0018218E0,2.5258646E0,2.691456E0,3.3549352E0,1.113038E1,1.1024803E0,1.0041984E0,4.0505062E1,1.5101326E0,3.0672345E0,1.2973596E0,3.7180724E0,2.153239E0,4.982817E0,1.0191112E0,4.8260283E0,1.0529226E0,3.476715E2,2.5161803E0,1.5006497E0,1.0001962E0,1.5253152E0,1.0005496E0,1.0224679E0,1.6689882E0,1.5023274E0,1.8526078E0,1.0555304E0,1.0074849E1,3.9984536E0,3.6506607E1],"tree_param":{"num_deleted":"0","num_feature":"30","num_nodes":"81","size_leaf_vector":"1"}},{"base_weights":[-7.773411E-1,-1.4732018E-1,-8.6819E-1,2.1631357E-1,-3.6376813E-1,-9.54815E-1,-6.506411E-1,7.9558533E-1,5.9149534E-2,-7.527606E-1,-1.369117E-1,-9.626984E-1,-3.0948016E-1,-1.9663619E-1,-7.994701E-1,3.2702312E-1,-4.7463346E-3,-1.3998267E-1,5.3644526E-1,-2.5905043E-1,5.542815E-2,-2.4643481E-1,1.9299588E-1,-9.668371E-1,-1.4778663E-2,1.4874656E-1,-2.1068043E-1,4.63056E-1,-3.815301E-1,-2.9538843E-1,-8.906262E-1,-5.8293074E-1,1.20761685E-1,2.1792714E-1,-2.8474921E-2,-4.3167025E-1,3.3744672E-1,-9.708902E-1,-3.442981E-1,8.301738E-2,-7.735254E-1,-5.5200815E-1,2.698722E-1,3.9521668E-2,-9.1901195E-1,-2.5416332E-1,6.3428166E-3,1.6296963E-1,-1.252082E-1,-2.4172775E-1,-1.7572153E-2,3.9567629E-1,-1.0368735E-1,-2.924969E-1,-1.15117036E-1,-1.5351328E-1,-3.297028E-4,2.2438496E-1,-1.3171846E-1,-2.7261996E-1,-4.439567E-2,2.23581E-1,-2.3959474E-1,-6.9365716E-3,-2.8032124E-1],"categories":[],"categories_nodes":[],"categories_segments":[],"categories_sizes":[],"default_left":[0,0,0,0,0,0,0,0,0,0,0,0,0,0,0,0,0,0,0,0,0,0,0,0,0,0,0,0,0,0,0,0,0,0,0,0,0,0,0,0,0,0,0,0,0,0,0,0,0,0,0,0,0,0,0,0,0,0,0,0,0,0,0,0,0],"id":15,"left_children":[1,3,5,7,9,11,13,15,17,19,21,23,25,27,29,-1,-1,31,33,-1,-1,35,-1,37,-1,-1,-1,-1,39,41,43,45,47,-1,-1,49,51,53,55,57,59,61,-1,-1,63,-1,-1,-1,-1,-1,-1,-1,-1,-1,-1,-1,-1,-1,-1,-1,-1,-1,-1,-1,-1],"loss_changes":[2.1651718E1,3.9479547E0,5.6421356E0,1.6800115E0,2.6492782E0,9.0049744E-1,6.450428E0,9.6544933E-1,1.5960157E0,1.3292809E0,1.9464588E0,8.303833E-1,1.713644E0,8.783404E0,3.1060677E0,0E0,0E0,1.4660933E0,6.588136E-1,0E0,0E0,2.2082305E0,0E0,2.4897766E-1,0E0,0E0,0E0,0E0,4.402687E0,4.398678E0,1.9086456E0,7.601516E-1,2.1443522E0,0E0,0E0,2.0346708E0,3.9113073E0,1.7730713E-1,1.7437202E-1,4.426944E0,9.6657467E-1,4.145201E0,0E0,0E0,8.065796E-1,0E0,0E0,0E0,0E0,0E0,0E0,0E0,0E0,0E0,0E0,0E0,0E0,0E0,0E0,0E0,0E0,0E0,0E0,0E0,0E0],"parents":[2147483647,0,0,1,1,2,2,3,3,4,4,5,5,6,6,7,7,8,8,9,9,10,10,11,11,12,12,13,13,14,14,17,17,18,18,21,21,23,23,28,28,29,29,30,30,31,31,32,32,35,35,36,36,37,37,38,38,39,39,40,40,41,41,44,44],"right_children":[2,4,6,8,10,12,14,16,18,20,22,24,26,28,30,-1,-1,32,34,-1,-1,36,-1,38,-1,-1,-1,-1,40,42,44,46,48,-1,-1,50,52,54,56,58,60,62,-1,-1,64,-1,-1,-1,-1,-1,-1,-1,-1,-1,-1,-1,-1,-1,-1,-1,-1,-1,-1,-1,-1],"split_conditions":[-1.6849223E0,-2.2072427E0,5.234523E-1,-7.031003E-1,-2.3274156E-1,2.4503274E0,-5.633937E-1,-1.330827E0,1.0636431E-2,8.553444E-1,7.142596E-1,2.9922686E0,-6.331657E-1,-1.2673244E0,-3.4327415E-1,3.2702312E-1,-4.7463346E-3,-4.1187707E-1,3.921547E-1,-2.5905043E-1,5.542815E-2,5.4856294E-1,1.9299588E-1,2.4951391E0,-1.4778663E-2,1.4874656E-1,-2.1068043E-1,4.63056E-1,2.617855E-1,1.0873553E0,-2.482834E0,-1.1132663E0,-2.482834E0,2.1792714E-1,-2.8474921E-2,1.312358E0,7.3604715E-1,2.0297332E0,8.677298E-2,3.5612926E-1,8.16165E-1,-9.2919594E-1,2.698722E-1,3.9521668E-2,-2.2199023E0,-2.5416332E-1,6.3428166E-3,1.6296963E-1,-1.252082E-1,-2.4172775E-1,-1.7572153E-2,3.9567629E-1,-1.0368735E-1,-2.924969E-1,-1.15117036E-1,-1.5351328E-1,-3.297028E-4,2.2438496E-1,-1.3171846E-1,-2.7261996E-1,-4.439567E-2,2.23581E-1,-2.3959474E-1,-6.9365716E-3,-2.8032124E-1],"split_indices":[14,12,4,26,1,7,12,7,29,21,29,19,11,20,29,0,0,26,24,0,0,24,0,26,0,0,0,0,3,11,3,0,3,0,0,18,24,17,6,14,22,17,0,0,16,0,0,0,0,0,0,0,0,0,0,0,0,0,0,0,0,0,0,0,0],"split_type":[0,0,0,0,0,0,0,0,0,0,0,0,0,0,0,0,0,0,0,0,0,0,0,0,0,0,0,0,0,0,0,0,0,0,0,0,0,0,0,0,0,0,0,0,0,0,0,0,0,0,0,0,0,0,0,0,0,0,0,0,0,0,0,0,0],"sum_hessian":[3.7951883E2,4.8159897E1,3.3135895E2,1.7970306E1,3.0189592E1,2.3456816E2,9.679077E1,2.9681675E0,1.5002139E1,1.0266803E1,1.9922789E1,2.3125142E2,3.3167517E0,2.4469002E1,7.232177E1,1.9257829E0,1.0423846E0,1.1084359E1,3.9177802E0,9.252807E0,1.013997E0,1.8070356E1,1.8524319E0,2.3015016E2,1.1012578E0,1.0013824E0,2.3153694E0,1.6443952E0,2.2824606E1,1.1724914E1,6.059685E1,3.6493185E0,7.4350405E0,2.8958454E0,1.0219349E0,1.3916165E1,4.1541915E0,2.2810548E2,2.0446694E0,1.0806369E1,1.2018238E1,1.0095044E1,1.6298698E0,1.5386481E0,5.9058205E1,2.2586632E0,1.3906553E0,4.1597767E0,3.2752635E0,6.3697834E0,7.546382E0,1.3227391E0,2.8314526E0,2.2586807E2,2.237417E0,1.0442702E0,1.0003992E0,4.5626407E0,6.243728E0,9.509979E0,2.508258E0,1.2897198E0,8.805325E0,1.0397967E0,5.801841E1],"tree_param":{"num_deleted":"0","num_feature":"30","num_nodes":"65","size_leaf_vector":"1"}},{"base_weights":[-7.278904E-1,-2.2499359E-1,-8.5439897E-1,-6.7747235E-1,-8.568112E-3,-9.5416063E-1,-6.044362E-1,-8.403394E-1,-9.2502795E-2,-6.965911E-2,3.0633608E-1,-1.9528493E-1,-9.652983E-1,2.0055447E-2,-7.597512E-1,-8.978876E-1,-8.0374087E-4,3.0724677E-1,-2.2314492E-1,5.3276796E-2,-5.131507E-1,-1.9002552E-1,1.4885978E-1,-9.710764E-1,-8.215098E-3,1.3250673E0,-2.9839677E-1,-8.486959E-1,2.449939E-2,-7.5885236E-2,-2.7838165E-1,-8.63213E-2,5.2014345E-1,-6.619969E-1,8.859341E-2,-9.7680885E-1,-9.009662E-2,6.859712E-1,-7.5730965E-2,2.8975713E-1,-4.8782155E-1,-1.9778183E-2,-9.586928E-1,2.9872277E-1,-4.373213E-1,8.541602E-2,-1.013591E-1,2.708917E-1,-1.8741654E-1,2.1957008E-2,-2.5526682E-1,-2.9476997E-1,-1.19656935E-1,-1.9723807E-1,2.0267792E-1,4.1416997E-1,-1.5091105E-1,-2.940371E-1,-1.7909261E-3,-2.2864622E-1,1.1946705E-1],"categories":[],"categories_nodes":[],"categories_segments":[],"categories_sizes":[],"default_left":[0,0,0,0,0,0,0,0,0,0,0,0,0,0,0,0,0,0,0,0,0,0,0,0,0,0,0,0,0,0,0,0,0,0,0,0,0,0,0,0,0,0,0,0,0,0,0,0,0,0,0,0,0,0,0,0,0,0,0,0,0],"id":16,"left_children":[1,3,5,7,9,11,13,15,17,19,-1,21,23,25,27,29,-1,-1,-1,31,33,-1,-1,35,-1,37,39,41,43,-1,-1,45,47,49,-1,51,-1,-1,-1,-1,53,55,57,-1,59,-1,-1,-1,-1,-1,-1,-1,-1,-1,-1,-1,-1,-1,-1,-1,-1],"loss_changes":[1.898645E1,6.0606985E0,5.4206543E0,1.8306494E0,2.770863E0,1.2498016E0,6.934143E0,7.4693966E-1,4.751791E0,2.2872515E0,0E0,1.4398065E0,8.809204E-1,6.704783E0,4.0074387E0,4.7124863E-2,0E0,0E0,0E0,2.219092E0,1.2893922E0,0E0,0E0,3.4646606E-1,0E0,5.373015E0,3.5892434E0,4.66383E0,3.4826286E0,0E0,0E0,2.5731251E0,3.9920607E0,1.1712196E0,0E0,1.556549E-1,0E0,0E0,0E0,0E0,2.810118E0,5.45722E0,9.194946E-1,0E0,1.7417407E0,0E0,0E0,0E0,0E0,0E0,0E0,0E0,0E0,0E0,0E0,0E0,0E0,0E0,0E0,0E0,0E0],"parents":[2147483647,0,0,1,1,2,2,3,3,4,4,5,5,6,6,7,7,8,8,9,9,11,11,12,12,13,13,14,14,15,15,19,19,20,20,23,23,25,25,26,26,27,27,28,28,31,31,32,32,33,33,35,35,40,40,41,41,42,42,44,44],"right_children":[2,4,6,8,10,12,14,16,18,20,-1,22,24,26,28,30,-1,-1,-1,32,34,-1,-1,36,-1,38,40,42,44,-1,-1,46,48,50,-1,52,-1,-1,-1,-1,54,56,58,-1,60,-1,-1,-1,-1,-1,-1,-1,-1,-1,-1,-1,-1,-1,-1,-1,-1],"split_conditions":[-1.0867046E0,2.7002558E-1,5.742061E-1,3.0586882E-2,2.1925216E0,-1.8019946E0,-3.3727702E-1,1.5023805E0,-2.590595E-1,2.1114084E-1,3.0633608E-1,4.2325327E-1,2.9922686E0,-1.8118477E0,1.0336099E0,-1.2716588E0,-8.0374087E-4,3.0724677E-1,-2.2314492E-1,4.258114E-2,9.2685074E-1,-1.9002552E-1,1.4885978E-1,2.4951391E0,-8.215098E-3,-1.5313081E-1,-8.0641776E-1,-4.6985072E-1,-7.0220435E-1,-7.5885236E-2,-2.7838165E-1,-2.944747E-1,1.0691307E0,-1.8976051E0,8.859341E-2,2.4503274E0,-9.009662E-2,6.859712E-1,-7.5730965E-2,2.8975713E-1,7.3294944E-1,-4.8593956E-1,1.9024552E0,2.9872277E-1,9.233226E-1,8.541602E-2,-1.013591E-1,2.708917E-1,-1.8741654E-1,2.1957008E-2,-2.5526682E-1,-2.9476997E-1,-1.19656935E-1,-1.9723807E-1,2.0267792E-1,4.1416997E-1,-1.5091105E-1,-2.940371E-1,-1.7909261E-3,-2.2864622E-1,1.1946705E-1],"split_indices":[14,4,4,29,23,20,29,0,6,6,0,7,19,19,7,12,0,0,0,29,1,0,0,26,0,26,14,20,13,0,0,13,18,17,0,7,0,0,0,0,20,14,26,0,19,0,0,0,0,0,0,0,0,0,0,0,0,0,0,0,0],"split_type":[0,0,0,0,0,0,0,0,0,0,0,0,0,0,0,0,0,0,0,0,0,0,0,0,0,0,0,0,0,0,0,0,0,0,0,0,0,0,0,0,0,0,0,0,0,0,0,0,0,0,0,0,0,0,0,0,0,0,0,0,0],"sum_hessian":[3.0045316E2,6.0948654E1,2.395045E2,1.9030817E1,4.1917835E1,1.6917036E2,7.033413E1,1.4544725E1,4.486092E0,4.0450287E1,1.4675498E0,2.7149985E0,1.6645537E2,1.4181983E1,5.615215E1,1.3542446E1,1.0022798E0,1.4417707E0,3.0443215E0,3.235997E1,8.090317E0,1.7133623E0,1.001636E0,1.6540103E2,1.0543314E0,2.1618397E0,1.20201435E1,5.035862E1,5.7935257E0,1.022194E0,1.2520252E1,2.5538725E1,6.8212457E0,6.985398E0,1.1049187E0,1.6354704E2,1.8539952E0,1.0638975E0,1.0979422E0,1.0321958E0,1.0987947E1,6.037894E0,4.432073E1,1.4944544E0,4.299072E0,1.0265114E1,1.527361E1,5.2702303E0,1.5510151E0,1.5531042E0,5.4322934E0,1.6124065E2,2.306393E0,9.9692135E0,1.0187339E0,1.072708E0,4.9651856E0,4.331757E1,1.0031585E0,3.1588492E0,1.1402223E0],"tree_param":{"num_deleted":"0","num_feature":"30","num_nodes":"61","size_leaf_vector":"1"}},{"base_weights":[-6.693451E-1,-2.2955589E-1,-8.3403224E-1,-6.0944873E-1,4.0407673E-2,-8.9841646E-1,-2.909956E-1,-1.8379243E-1,-7.948218E-1,5.1674145E-1,-2.0276739E-1,-5.276552E-2,-9.2156297E-1,2.918735E-1,-6.3103503E-1,-5.044902E-1,6.9248354E-1,-8.9186233E-1,1.2010459E-1,8.831012E-2,1.6321034E0,4.0705213E-1,-3.7362307E-1,3.168945E-1,-2.2229795E-1,-9.3948025E-1,-1.7919959E-1,1.293825E0,-3.200044E-1,-2.71276E-1,2.3360486E-1,4.0636003E-2,-2.4170381E-1,-9.246519E-3,3.269237E-1,-2.830379E-1,-5.9047034E-3,3.750296E-1,-2.1008448E-1,7.964206E-1,-9.949921E-2,2.4612428E-1,-2.1966879E-1,-1.4640084E-1,-7.367799E-1,-9.4572634E-1,-2.963177E-2,2.4114443E-1,-2.1812245E-1,-1.5509483E-1,7.0724857E-1,-2.3882267E-1,2.9580393E-1,3.5116616E-1,-1.8943802E-1,2.0201823E-1,-1.3723163E-1,-6.5939024E-2,2.6840392E-1,-2.469504E-1,1.5894413E-1,-1.2583926E-1,1.7905918E-1,7.681907E-3,-2.592008E-1,-3.4595978E-2,-2.8561392E-1],"categories":[],"categories_nodes":[],"categories_segments":[],"categories_sizes":[],"default_left":[0,0,0,0,0,0,0,0,0,0,0,0,0,0,0,0,0,0,0,0,0,0,0,0,0,0,0,0,0,0,0,0,0,0,0,0,0,0,0,0,0,0,0,0,0,0,0,0,0,0,0,0,0,0,0,0,0,0,0,0,0,0,0,0,0,0,0],"id":17,"left_children":[1,3,5,7,9,11,13,15,17,19,21,23,25,27,29,31,33,35,-1,37,39,41,43,-1,-1,45,47,49,51,-1,53,55,-1,-1,-1,-1,-1,57,-1,-1,-1,-1,59,61,63,65,-1,-1,-1,-1,-1,-1,-1,-1,-1,-1,-1,-1,-1,-1,-1,-1,-1,-1,-1,-1,-1],"loss_changes":[1.742598E1,6.9626293E0,5.912735E0,2.076312E0,4.7942185E0,3.032219E0,4.1872187E0,3.116148E0,2.5977726E0,6.528921E0,3.0194345E0,4.7931356E0,1.8685913E0,5.3953834E0,3.2992768E0,1.3111296E0,9.1266143E-1,7.9951286E-1,0E0,2.7828655E0,8.548277E0,1.8645253E0,1.7090478E0,0E0,0E0,6.9055176E-1,3.193648E0,7.5343657E0,4.419914E0,0E0,3.9273188E0,1.4813706E0,0E0,0E0,0E0,0E0,0E0,2.9246337E0,0E0,0E0,0E0,0E0,1.9616455E0,3.2525527E0,8.200278E-1,6.673584E-1,0E0,0E0,0E0,0E0,0E0,0E0,0E0,0E0,0E0,0E0,0E0,0E0,0E0,0E0,0E0,0E0,0E0,0E0,0E0,0E0,0E0],"parents":[2147483647,0,0,1,1,2,2,3,3,4,4,5,5,6,6,7,7,8,8,9,9,10,10,11,11,12,12,13,13,14,14,15,15,16,16,17,17,19,19,20,20,21,21,22,22,25,25,26,26,27,27,28,28,30,30,31,31,37,37,42,42,43,43,44,44,45,45],"right_children":[2,4,6,8,10,12,14,16,18,20,22,24,26,28,30,32,34,36,-1,38,40,42,44,-1,-1,46,48,50,52,-1,54,56,-1,-1,-1,-1,-1,58,-1,-1,-1,-1,60,62,64,66,-1,-1,-1,-1,-1,-1,-1,-1,-1,-1,-1,-1,-1,-1,-1,-1,-1,-1,-1,-1,-1],"split_conditions":[-8.425151E-1,5.234523E-1,1.7247576E0,-8.055803E-1,-7.680427E-1,-1.4867703E0,-3.2280394E-1,-9.426716E-1,1.4529712E0,-1.0416905E0,-1.3926579E0,-2.3442827E-1,2.0220823E0,-1.5313081E-1,5.8907884E-1,1.7314044E-1,7.090157E-1,1.5147836E0,1.2010459E-1,-4.8060697E-1,-3.038799E-1,-2.482834E0,-2.1248503E0,3.168945E-1,-2.2229795E-1,2.1892989E0,-1.1140606E0,-4.208523E-1,1.1270448E0,-2.71276E-1,-1.7034358E-1,-1.744403E-1,-2.4170381E-1,-9.246519E-3,3.269237E-1,-2.830379E-1,-5.9047034E-3,-3.6643392E-1,-2.1008448E-1,7.964206E-1,-9.949921E-2,2.4612428E-1,-2.785916E0,-5.4866597E-2,-2.4771867E0,-2.6581185E0,-2.963177E-2,2.4114443E-1,-2.1812245E-1,-1.5509483E-1,7.0724857E-1,-2.3882267E-1,2.9580393E-1,3.5116616E-1,-1.8943802E-1,2.0201823E-1,-1.3723163E-1,-6.5939024E-2,2.6840392E-1,-2.469504E-1,1.5894413E-1,-1.2583926E-1,1.7905918E-1,7.681907E-3,-2.592008E-1,-3.4595978E-2,-2.8561392E-1],"split_indices":[14,4,4,10,0,20,29,10,19,0,7,12,7,26,11,16,18,0,0,12,13,3,14,0,0,15,26,26,22,0,16,8,0,0,0,0,0,26,0,0,0,0,7,12,12,19,0,0,0,0,0,0,0,0,0,0,0,0,0,0,0,0,0,0,0,0,0],"split_type":[0,0,0,0,0,0,0,0,0,0,0,0,0,0,0,0,0,0,0,0,0,0,0,0,0,0,0,0,0,0,0,0,0,0,0,0,0,0,0,0,0,0,0,0,0,0,0,0,0,0,0,0,0,0,0,0,0,0,0,0,0,0,0,0,0,0,0],"sum_hessian":[2.4224193E2,6.6650055E1,1.7559187E2,2.7165388E1,3.948467E1,1.5639478E2,1.9197107E1,8.845559E0,1.831983E1,1.2964566E1,2.6520103E1,4.2540483E0,1.5214072E2,7.125234E0,1.2071874E1,6.7862277E0,2.0593312E0,1.7178793E1,1.1410358E0,1.0146342E1,2.8182235E0,5.5015373E0,2.1018566E1,1.4241667E0,2.8298817E0,1.48296E2,3.844715E0,2.2789435E0,4.8462906E0,9.138406E0,2.9334679E0,2.7229695E0,4.063258E0,1.0570847E0,1.0022464E0,1.6142117E1,1.0366769E0,7.8255334E0,2.3208091E0,1.6218086E0,1.196415E0,3.1288226E0,2.3727148E0,1.3792146E1,7.22642E0,1.4707837E2,1.2176411E0,1.2087643E0,2.6359508E0,1.0334857E0,1.2454579E0,3.83779E0,1.0085005E0,1.2386981E0,1.6947697E0,1.044295E0,1.6786747E0,3.9178867E0,3.9076467E0,1.2599009E0,1.1128138E0,1.040512E1,3.3870254E0,1.1476741E0,6.078746E0,1.2563069E0,1.4582205E2],"tree_param":{"num_deleted":"0","num_feature":"30","num_nodes":"67","size_leaf_vector":"1"}},{"base_weights":[-6.094173E-1,-8.521644E-1,-2.7623406E-1,-2.5604048E-1,-8.967966E-1,3.788049E-2,-5.471472E-1,-5.006994E-1,2.0683406E-1,-5.5336595E-2,-9.1388285E-1,-7.765536E-2,8.8828737E-1,1.9768563E-1,-6.0009897E-1,1.3606456E-1,-7.24838E-1,-1.6200309E-1,1.4923294E-1,-9.393734E-1,-4.1476E-1,-1.5356514E-1,3.47204E-1,5.574222E-1,-2.7988568E-1,-7.7711785E-1,-1.9576566E-1,-2.5018072E-1,-1.2957116E-2,-2.902708E-1,-5.03035E-1,1.4545508E-1,-2.4185418E-1,1.178226E-1,-4.4973296E-1,3.974514E-2,-1.6225657E-1,-8.352542E-1,8.078638E-2,-4.577741E-1,6.7943597E-1,1.2479382E-1,-2.5191757E-1,4.4048643E-1,-3.418449E-2,-3.1301253E-2,-2.3096408E-1,-5.6574155E-2,-2.785481E-1,9.975863E-2,-2.4418485E-1,3.498791E-1,-3.5511114E-2],"categories":[],"categories_nodes":[],"categories_segments":[],"categories_sizes":[],"default_left":[0,0,0,0,0,0,0,0,0,0,0,0,0,0,0,0,0,0,0,0,0,0,0,0,0,0,0,0,0,0,0,0,0,0,0,0,0,0,0,0,0,0,0,0,0,0,0,0,0,0,0,0,0],"id":18,"left_children":[1,3,5,7,9,11,13,15,-1,17,19,21,23,-1,25,-1,27,-1,-1,29,31,33,-1,-1,35,37,39,-1,-1,-1,41,-1,-1,43,45,-1,-1,47,-1,49,51,-1,-1,-1,-1,-1,-1,-1,-1,-1,-1,-1,-1],"loss_changes":[1.5776634E1,2.8048706E0,7.24751E0,2.5066535E0,1.4692307E0,4.024754E0,3.3116398E0,2.0403254E0,0E0,1.1174357E0,9.2770386E-1,3.5869274E0,6.0666513E0,0E0,3.0161142E0,0E0,4.745164E-1,0E0,0E0,7.154846E-1,2.7928963E0,2.8776023E0,0E0,0E0,4.0418154E-1,2.0773087E0,3.7083054E0,0E0,0E0,0E0,2.8290455E0,0E0,0E0,6.155211E0,1.800772E0,0E0,0E0,1.5789528E0,0E0,3.648301E0,1.6201248E0,0E0,0E0,0E0,0E0,0E0,0E0,0E0,0E0,0E0,0E0,0E0,0E0],"parents":[2147483647,0,0,1,1,2,2,3,3,4,4,5,5,6,6,7,7,9,9,10,10,11,11,12,12,14,14,16,16,19,19,20,20,21,21,24,24,25,25,26,26,30,30,33,33,34,34,37,37,39,39,40,40],"right_children":[2,4,6,8,10,12,14,16,-1,18,20,22,24,-1,26,-1,28,-1,-1,30,32,34,-1,-1,36,38,40,-1,-1,-1,42,-1,-1,44,46,-1,-1,48,-1,50,52,-1,-1,-1,-1,-1,-1,-1,-1,-1,-1,-1,-1],"split_conditions":[5.234523E-1,-1.8694028E0,-4.5389566E-1,4.9984738E-1,-2.1164367E0,1.3700686E0,5.4742426E-1,-8.639583E-1,2.0683406E-1,-3.9899746E-1,1.4529712E0,1.2431035E0,-6.515924E-1,1.9768563E-1,1.7247576E0,1.3606456E-1,1.1276653E0,-1.6200309E-1,1.4923294E-1,8.661869E-1,-7.132918E-1,1.5862973E-1,3.47204E-1,5.574222E-1,-2.2666772E-1,1.1275272E0,1.312358E0,-2.5018072E-1,-1.2957116E-2,-2.902708E-1,-1.0267373E0,1.4545508E-1,-2.4185418E-1,-2.0149639E0,-3.2468307E-1,3.974514E-2,-1.6225657E-1,6.437021E-1,8.078638E-2,-3.4327415E-1,-1.2954156E0,1.2479382E-1,-2.5191757E-1,4.4048643E-1,-3.418449E-2,-3.1301253E-2,-2.3096408E-1,-5.6574155E-2,-2.785481E-1,9.975863E-2,-2.4418485E-1,3.498791E-1,-3.5511114E-2],"split_indices":[4,14,12,12,3,15,4,7,0,5,19,24,0,0,4,0,25,0,0,29,24,18,0,0,7,21,18,0,0,0,26,0,0,19,29,0,0,4,0,29,3,0,0,0,0,0,0,0,0,0,0,0,0],"split_type":[0,0,0,0,0,0,0,0,0,0,0,0,0,0,0,0,0,0,0,0,0,0,0,0,0,0,0,0,0,0,0,0,0,0,0,0,0,0,0,0,0,0,0,0,0,0,0,0,0,0,0,0,0],"sum_hessian":[1.9697453E2,1.1305124E2,8.392329E1,8.343896E0,1.04707344E2,3.926131E1,4.4661972E1,7.002363E0,1.3415332E0,2.1681786E0,1.0253917E2,3.5365284E1,3.8960257E0,1.3970271E0,4.3264946E1,1.1372247E0,5.8651385E0,1.1675653E0,1.0006132E0,9.671769E1,5.8214774E0,3.414237E1,1.2229155E0,1.8060821E0,2.0899434E0,2.9449745E1,1.3815202E1,4.8633475E0,1.0017908E0,8.970363E1,7.014063E0,1.6926136E0,4.128864E0,1.8130764E1,1.6011606E1,1.0008291E0,1.0891143E0,2.8090858E1,1.3588872E0,1.09993E1,2.815902E0,1.8175272E0,5.1965356E0,1.874351E0,1.6256413E1,8.339895E0,7.67171E0,3.9207244E0,2.4170134E1,3.4377677E0,7.5615315E0,1.4619629E0,1.3539389E0],"tree_param":{"num_deleted":"0","num_feature":"30","num_nodes":"53","size_leaf_vector":"1"}},{"base_weights":[-5.3666294E-1,-1.0130022E-1,-7.4426776E-1,2.150506E-2,-2.4708222E-1,-9.0688384E-1,-4.1646305E-1,4.092784E-1,-1.6293702E-1,4.009405E-3,-9.3179137E-1,8.750345E-2,-7.373979E-1,9.773918E-1,-1.9101778E-1,1.832216E-1,-4.806071E-1,-3.414553E-1,-9.571161E-1,7.1069485E-1,-4.1521335E-1,7.642791E-2,-8.4394056E-1,-3.2775056E-2,1.9430481E0,-2.0135494E-1,1.442125E-1,-1.2693552E-2,4.5167914E-1,1.4059383E-1,-6.081655E-1,-2.1563649E-1,1.486909E-1,-1.5795475E-2,-9.7111565E-1,-1.8435836E-1,1.1611228E0,2.5397837E-1,-7.143054E-1,-1.8984564E-1,2.9921165E-1,-8.8483036E-1,-1.701572E-3,2.0378956E-1,-1.593593E-1,-4.2464126E-2,8.119042E-1,1.679556E-1,-5.567712E-2,2.1272524E-1,-7.077372E-2,-2.4470592E-1,-1.0356045E-2,-2.9563272E-1,-6.856819E-2,5.7742435E-1,3.1810965E-2,-1.696572E-1,2.762892E-1,-2.3972634E-3,-2.5013816E-1,-2.789964E-1,-1.7769538E-2],"categories":[],"categories_nodes":[],"categories_segments":[],"categories_sizes":[],"default_left":[0,0,0,0,0,0,0,0,0,0,0,0,0,0,0,0,0,0,0,0,0,0,0,0,0,0,0,0,0,0,0,0,0,0,0,0,0,0,0,0,0,0,0,0,0,0,0,0,0,0,0,0,0,0,0,0,0,0,0,0,0,0,0],"id":19,"left_children":[1,3,5,7,-1,9,11,13,15,-1,17,19,21,23,25,27,29,31,33,35,37,39,41,43,45,-1,47,49,-1,-1,51,-1,-1,-1,53,-1,55,57,59,-1,-1,61,-1,-1,-1,-1,-1,-1,-1,-1,-1,-1,-1,-1,-1,-1,-1,-1,-1,-1,-1,-1,-1],"loss_changes":[1.5002018E1,4.898163E0,5.635063E0,3.4996943E0,0E0,1.7211189E0,6.412944E0,5.56021E0,3.743609E0,0E0,7.584877E-1,5.3593173E0,2.1529255E0,8.119823E0,1.4646376E0,4.3280764E0,2.4174309E0,1.7905139E0,8.23246E-1,5.241944E0,2.098537E0,3.0512857E0,7.278414E-1,2.1424139E0,7.127981E0,0E0,9.0269446E-1,2.6609602E0,0E0,0E0,1.8717651E0,0E0,0E0,0E0,4.9758148E-1,0E0,4.6364803E0,2.5412478E0,5.7415724E-1,0E0,0E0,7.047205E-1,0E0,0E0,0E0,0E0,0E0,0E0,0E0,0E0,0E0,0E0,0E0,0E0,0E0,0E0,0E0,0E0,0E0,0E0,0E0,0E0,0E0],"parents":[2147483647,0,0,1,1,2,2,3,3,5,5,6,6,7,7,8,8,10,10,11,11,12,12,13,13,14,14,15,15,16,16,17,17,18,18,19,19,20,20,21,21,22,22,23,23,24,24,26,26,27,27,30,30,34,34,36,36,37,37,38,38,41,41],"right_children":[2,4,6,8,-1,10,12,14,16,-1,18,20,22,24,26,28,30,32,34,36,38,40,42,44,46,-1,48,50,-1,-1,52,-1,-1,-1,54,-1,56,58,60,-1,-1,62,-1,-1,-1,-1,-1,-1,-1,-1,-1,-1,-1,-1,-1,-1,-1,-1,-1,-1,-1,-1,-1],"split_conditions":[-8.425151E-1,5.0066024E-1,6.3005584E-1,-6.0766554E-1,-2.4708222E-1,-1.8019946E0,-9.157892E-2,2.3344254E-1,-1.2954156E0,4.009405E-3,-1.3336955E0,-1.2624966E-1,-4.6063876E-1,-1.1696431E-1,3.5494995E-1,7.244736E-1,-3.7942958E0,2.7093524E-1,-1.862259E0,-6.620792E-1,-1.5094052E-1,-5.613578E-1,2.1406064E0,-7.1506286E-1,-4.5571387E-1,-2.0135494E-1,2.619721E0,-4.286067E-1,4.5167914E-1,1.4059383E-1,1.5416147E0,-2.1563649E-1,1.486909E-1,-1.5795475E-2,1.2313843E0,-1.8435836E-1,-4.8798776E-1,6.174835E-2,-4.737541E-1,-1.8984564E-1,2.9921165E-1,1.218249E0,-1.701572E-3,2.0378956E-1,-1.593593E-1,-4.2464126E-2,8.119042E-1,1.679556E-1,-5.567712E-2,2.1272524E-1,-7.077372E-2,-2.4470592E-1,-1.0356045E-2,-2.9563272E-1,-6.856819E-2,5.7742435E-1,3.1810965E-2,-1.696572E-1,2.762892E-1,-2.3972634E-3,-2.5013816E-1,-2.789964E-1,-1.7769538E-2],"split_indices":[14,10,4,0,0,20,8,8,3,0,10,25,20,21,21,9,14,27,8,0,21,1,20,22,5,0,27,8,0,0,16,0,0,0,23,0,16,28,27,0,0,12,0,0,0,0,0,0,0,0,0,0,0,0,0,0,0,0,0,0,0,0,0],"split_type":[0,0,0,0,0,0,0,0,0,0,0,0,0,0,0,0,0,0,0,0,0,0,0,0,0,0,0,0,0,0,0,0,0,0,0,0,0,0,0,0,0,0,0,0,0,0,0,0,0,0,0,0,0,0,0,0,0,0,0,0,0,0,0],"sum_hessian":[1.6581616E2,5.4020054E1,1.1179611E2,4.6999516E1,7.02054E0,7.354544E1,3.8250668E1,1.4756421E1,3.2243095E1,1.950339E0,7.15951E1,1.5164727E1,2.308594E1,7.258694E0,7.497727E0,1.5632217E1,1.6610876E1,3.5407655E0,6.805434E1,6.586314E0,8.578413E0,2.7051697E0,2.038077E1,4.019735E0,3.2389593E0,2.6704977E0,4.827229E0,1.4477692E1,1.154526E0,1.6509565E0,1.495992E1,2.538032E0,1.0027333E0,1.109876E0,6.694446E1,1.5783285E0,5.0079856E0,2.6963677E0,5.8820453E0,1.7049756E0,1.000194E0,1.9379896E1,1.0008738E0,1.5057056E0,2.5140293E0,1.0864332E0,2.1525261E0,1.8270826E0,3.0001464E0,2.9056492E0,1.1572042E1,1.0675893E1,4.2840266E0,6.535639E1,1.5880677E0,2.4271007E0,2.580885E0,1.2781134E0,1.4182544E0,1.0054642E0,4.876581E0,1.8254965E1,1.1249318E0],"tree_param":{"num_deleted":"0","num_feature":"30","num_nodes":"63","size_leaf_vector":"1"}},{"base_weights":[-4.701997E-1,-7.641233E-1,-1.7753421E-1,-2.9188251E-1,-8.6336213E-1,5.7615567E-2,-4.5576233E-1,1.8272829E-1,-6.812818E-1,-9.237616E-1,-2.9228795E-1,9.9645865E-1,-4.2791035E-2,4.883912E-2,-6.9861597E-1,-1.891839E-1,9.433431E-1,-2.4626096E-1,4.0232014E-2,-9.597916E-1,-2.3526436E-1,-6.5674436E-1,2.315803E-1,5.9511787E-1,-4.828278E-3,9.28501E-2,-7.3607135E-1,8.554605E-1,-3.2217908E-1,2.4351105E-1,-8.0986464E-1,-1.5324485E-1,4.8484823E-1,-9.7444855E-2,-2.9377088E-1,1.4975098E-1,-1.9736984E-1,-2.379159E-1,-1.0573077E-3,-1.3320553E-1,4.0101898E-1,-2.458313E-1,-4.7069736E-2,4.6216834E-1,-1.5684812E-1,-5.82538E-1,1.4964586E-1,-1.6181843E-1,2.9108027E-1,-8.413868E-2,-8.9522654E-1,-1.5400258E-1,4.3697517E-2,4.1979662E-1,1.7354885E-2,1.4548765E-1,-2.520877E-1,1.4885195E-1,-1.6793744E-1,-2.834016E-1,-7.304391E-3],"categories":[],"categories_nodes":[],"categories_segments":[],"categories_sizes":[],"default_left":[0,0,0,0,0,0,0,0,0,0,0,0,0,0,0,0,0,0,0,0,0,0,0,0,0,0,0,0,0,0,0,0,0,0,0,0,0,0,0,0,0,0,0,0,0,0,0,0,0,0,0,0,0,0,0,0,0,0,0,0,0],"id":20,"left_children":[1,3,5,7,9,11,13,15,17,19,21,23,25,27,29,-1,31,-1,-1,33,35,37,-1,-1,-1,39,41,43,45,47,49,-1,-1,-1,-1,-1,-1,-1,-1,51,53,-1,-1,-1,-1,55,-1,-1,-1,57,59,-1,-1,-1,-1,-1,-1,-1,-1,-1,-1],"loss_changes":[1.2172625E1,3.0794144E0,4.802185E0,2.6850758E0,1.738533E0,3.8556595E0,4.145311E0,4.945652E0,1.000396E0,1.0690575E0,3.2346325E0,3.9797754E0,3.594778E0,3.8174415E0,2.5778494E0,0E0,4.773196E0,0E0,0E0,2.9035568E-1,1.5453141E0,5.1175237E-1,0E0,0E0,0E0,2.3001957E0,1.7312574E-1,4.584566E0,2.1786032E0,2.3257015E0,1.1974955E0,0E0,0E0,0E0,0E0,0E0,0E0,0E0,0E0,2.126555E0,4.679868E0,0E0,0E0,0E0,0E0,2.379608E0,0E0,0E0,0E0,1.1792804E0,7.641554E-1,0E0,0E0,0E0,0E0,0E0,0E0,0E0,0E0,0E0,0E0],"parents":[2147483647,0,0,1,1,2,2,3,3,4,4,5,5,6,6,7,7,8,8,9,9,10,10,11,11,12,12,13,13,14,14,16,16,19,19,20,20,21,21,25,25,26,26,27,27,28,28,29,29,30,30,39,39,40,40,45,45,49,49,50,50],"right_children":[2,4,6,8,10,12,14,16,18,20,22,24,26,28,30,-1,32,-1,-1,34,36,38,-1,-1,-1,40,42,44,46,48,50,-1,-1,-1,-1,-1,-1,-1,-1,52,54,-1,-1,-1,-1,56,-1,-1,-1,58,60,-1,-1,-1,-1,-1,-1,-1,-1,-1,-1],"split_conditions":[5.234523E-1,-1.1169057E0,-4.441144E-1,-2.4632427E-1,8.661869E-1,6.437021E-1,-3.2280394E-1,-6.025839E-1,1.4492544E0,1.4899268E0,-2.0488927E-1,-5.194539E-1,2.6491234E-1,-1.8118477E0,-1.5376651E0,-1.891839E-1,-1.8894769E-1,-2.4626096E-1,4.0232014E-2,-1.3336955E0,-8.009821E-1,8.468731E-1,2.315803E-1,5.9511787E-1,-4.828278E-3,2.7344623E-1,1.312358E0,7.187495E-2,6.874307E-1,3.2390416E-1,-1.2763132E0,-1.5324485E-1,4.8484823E-1,-9.7444855E-2,-2.9377088E-1,1.4975098E-1,-1.9736984E-1,-2.379159E-1,-1.0573077E-3,5.1251084E-2,1.0943715E-1,-2.458313E-1,-4.7069736E-2,4.6216834E-1,-1.5684812E-1,-1.3800553E0,1.4964586E-1,-1.6181843E-1,2.9108027E-1,-8.633093E-3,2.2772372E0,-1.5400258E-1,4.3697517E-2,4.1979662E-1,1.7354885E-2,1.4548765E-1,-2.520877E-1,1.4885195E-1,-1.6793744E-1,-2.834016E-1,-7.304391E-3],"split_indices":[4,14,14,26,29,4,29,26,11,19,5,0,12,19,13,0,1,0,0,10,24,25,0,0,0,21,18,8,12,24,24,0,0,0,0,0,0,0,0,28,28,0,0,0,0,25,0,0,0,28,13,0,0,0,0,0,0,0,0,0,0],"split_type":[0,0,0,0,0,0,0,0,0,0,0,0,0,0,0,0,0,0,0,0,0,0,0,0,0,0,0,0,0,0,0,0,0,0,0,0,0,0,0,0,0,0,0,0,0,0,0,0,0,0,0,0,0,0,0,0,0,0,0,0,0],"sum_hessian":[1.4208415E2,7.008598E1,7.199818E1,1.2855005E1,5.7230976E1,3.9449554E1,3.254862E1,6.032801E0,6.8222046E0,5.119841E1,6.032564E0,2.949189E0,3.6500366E1,1.0834851E1,2.1713768E1,2.997949E0,3.0348525E0,5.8192697E0,1.0029347E0,4.8277924E1,2.9204884E0,4.778868E0,1.2536961E0,1.0076089E0,1.9415802E0,3.1251955E1,5.2484117E0,3.0021787E0,7.832672E0,2.1676657E0,1.9546103E1,1.0361673E0,1.9986851E0,1.9605272E0,4.6317398E1,1.000602E0,1.9198864E0,3.7767084E0,1.0021596E0,1.8355286E1,1.2896669E1,4.2253675E0,1.0230439E0,1.9267302E0,1.0754485E0,6.167316E0,1.6653563E0,1.1676298E0,1.0000358E0,2.2660835E0,1.728002E1,7.4114523E0,1.0943833E1,2.5118587E0,1.0384811E1,1.0280677E0,5.1392484E0,1.0013106E0,1.2647729E0,1.6271448E1,1.0085707E0],"tree_param":{"num_deleted":"0","num_feature":"30","num_nodes":"61","size_leaf_vector":"1"}},{"base_weights":[-4.054032E-1,-7.096898E-1,-1.4186868E-1,-2.5441864E-1,-8.253574E-1,8.047153E-3,-4.8596594E-1,-4.565759E-1,4.797506E-1,3.971187E-2,-8.640807E-1,1.2640317E-1,-7.154254E-1,-6.7692995E-1,5.977493E-1,-7.485342E-1,2.376259E-1,4.166728E-1,-1.6784047E-1,-9.027951E-1,-2.5776446E-1,3.1938866E-2,4.2957583E-1,-7.3086715E-4,-2.504352E-1,2.1598315E-1,-8.687481E-1,4.9049726E-1,-1.7746332E-1,2.5836555E-3,-2.5956583E-1,2.8922987E-1,-1.7239763E-1,-3.6686307E-1,-2.916681E-1,1.498587E-1,-2.014301E-1,-3.789416E-2,7.275824E-1,-2.0207189E-1,4.1878387E-1,-2.7940452E-1,5.402589E-4,-2.377573E-1,1.76941E-1,1.3255833E-1,-4.4287674E-2,2.2370111E-2,2.8951487E-1],"categories":[],"categories_nodes":[],"categories_segments":[],"categories_sizes":[],"default_left":[0,0,0,0,0,0,0,0,0,0,0,0,0,0,0,0,0,0,0,0,0,0,0,0,0,0,0,0,0,0,0,0,0,0,0,0,0,0,0,0,0,0,0,0,0,0,0,0,0],"id":21,"left_children":[1,3,5,7,9,11,13,15,17,-1,19,21,23,25,27,29,31,-1,-1,33,35,37,-1,-1,-1,39,41,-1,-1,-1,-1,-1,-1,43,-1,-1,-1,45,47,-1,-1,-1,-1,-1,-1,-1,-1,-1,-1],"loss_changes":[9.921501E0,2.8314266E0,3.5233378E0,2.1702032E0,1.8058624E0,4.2437654E0,4.6926913E0,2.3709314E0,3.9195018E0,0E0,7.993965E-1,5.199898E0,5.9109163E-1,3.2851744E0,5.4515243E0,7.0168257E-1,2.8923047E0,0E0,0E0,1.1663971E0,1.6005812E0,2.0041428E0,0E0,0E0,0E0,5.1377325E0,8.238144E-1,0E0,0E0,0E0,0E0,0E0,0E0,3.0331223E0,0E0,0E0,0E0,2.06184E0,5.113158E-1,0E0,0E0,0E0,0E0,0E0,0E0,0E0,0E0,0E0,0E0],"parents":[2147483647,0,0,1,1,2,2,3,3,4,4,5,5,6,6,7,7,8,8,10,10,11,11,12,12,13,13,14,14,15,15,16,16,19,19,20,20,21,21,25,25,26,26,33,33,37,37,38,38],"right_children":[2,4,6,8,10,12,14,16,18,-1,20,22,24,26,28,30,32,-1,-1,34,36,38,-1,-1,-1,40,42,-1,-1,-1,-1,-1,-1,44,-1,-1,-1,46,48,-1,-1,-1,-1,-1,-1,-1,-1,-1,-1],"split_conditions":[5.234523E-1,-1.1169057E0,1.48162E-1,1.2943704E0,-1.8019946E0,8.41541E-1,1.0854236E0,3.0586882E-2,-2.750769E-1,3.971187E-2,1.4899268E0,6.760319E-1,-1.3134786E0,-2.0149639E0,-4.8798776E-1,-3.1917875E0,-2.590595E-1,4.166728E-1,-1.6784047E-1,-1.0982064E0,-2.8851792E-1,2.3066092E0,4.2957583E-1,-7.3086715E-4,-2.504352E-1,3.0786544E-1,1.5475433E0,4.9049726E-1,-1.7746332E-1,2.5836555E-3,-2.5956583E-1,2.8922987E-1,-1.7239763E-1,-1.290738E0,-2.916681E-1,1.498587E-1,-2.014301E-1,-1.295359E0,-9.6277136E-1,-2.0207189E-1,4.1878387E-1,-2.7940452E-1,5.402589E-4,-2.377573E-1,1.76941E-1,1.3255833E-1,-4.4287674E-2,2.2370111E-2,2.8951487E-1],"split_indices":[4,14,14,0,20,3,24,29,26,0,19,3,16,19,16,14,6,0,0,26,7,21,0,0,0,9,22,0,0,0,0,0,0,26,0,0,0,15,23,0,0,0,0,0,0,0,0,0,0],"split_type":[0,0,0,0,0,0,0,0,0,0,0,0,0,0,0,0,0,0,0,0,0,0,0,0,0,0,0,0,0,0,0,0,0,0,0,0,0,0,0,0,0,0,0,0,0,0,0,0,0],"sum_hessian":[1.2398047E2,5.6755516E1,6.722496E1,1.2146418E1,4.4609097E1,4.750476E1,1.9720196E1,9.820419E0,2.3259978E0,1.6395776E0,4.296952E1,4.153513E1,5.9696302E0,1.7084974E1,2.635222E0,6.857934E0,2.9624856E0,1.0611548E0,1.2648429E0,3.9930878E1,3.0386412E0,3.968787E1,1.8472631E0,1.0023712E0,4.967259E0,2.9989398E0,1.4086035E1,1.2074167E0,1.4278053E0,1.0394368E0,5.818497E0,1.4651858E0,1.4972999E0,5.3005633E0,3.4630314E1,1.0001448E0,2.0384963E0,3.6926483E1,2.7613838E0,1.9545739E0,1.0443659E0,1.307592E1,1.0101146E0,3.7871E0,1.5134633E0,6.3103485E0,3.0616137E1,1.0867951E0,1.6745887E0],"tree_param":{"num_deleted":"0","num_feature":"30","num_nodes":"49","size_leaf_vector":"1"}},{"base_weights":[-3.3960688E-1,-7.109821E-1,-1.3666536E-1,-4.5250237E-2,-7.925021E-1,4.822439E-2,-3.8154995E-1,-1.8770945E-1,2.2067574E-1,-8.7501925E-1,4.0071346E-2,-8.128706E-2,6.0973847E-1,2.7704528E-1,-4.5690128E-1,-9.308737E-1,-2.5784782E-1,2.7538505E-1,-1.9582166E-1,7.553198E-2,-5.6218415E-1,1.3871652E0,-2.882033E-1,1.16838336E-1,-5.82665E-1,-6.141698E-3,-2.893075E-1,1.4823544E-1,-2.0175886E-1,-1.0910779E-1,6.5336645E-1,1.0575417E-1,-2.6014805E-1,3.7157783E-1,6.248486E-1,1.5093058E-1,-2.1848288E-1,6.863338E-1,-3.2585904E-1,-7.441392E-5,-8.0317605E-1,1.8789662E-1,-7.271763E-2,-1.6034324E-1,3.2891795E-1,1.8141733E-2,1.4966242E-1,3.4117103E-1,-3.449583E-2,-1.8025717E-1,8.06992E-2,1.9286053E-1,-1.7342108E-1,3.2502674E-2,-2.8169686E-1],"categories":[],"categories_nodes":[],"categories_segments":[],"categories_sizes":[],"default_left":[0,0,0,0,0,0,0,0,0,0,0,0,0,0,0,0,0,0,0,0,0,0,0,0,0,0,0,0,0,0,0,0,0,0,0,0,0,0,0,0,0,0,0,0,0,0,0,0,0,0,0,0,0,0,0],"id":22,"left_children":[1,3,5,7,9,11,13,-1,-1,15,17,19,21,-1,23,25,27,-1,-1,29,31,33,35,37,39,-1,-1,-1,-1,41,43,-1,-1,45,-1,-1,-1,47,49,51,53,-1,-1,-1,-1,-1,-1,-1,-1,-1,-1,-1,-1,-1,-1],"loss_changes":[8.302137E0,2.0884113E0,3.3372865E0,2.8763196E0,2.4266777E0,3.1515677E0,3.5339847E0,0E0,0E0,8.532963E-1,3.0899599E0,2.7229178E0,6.062687E0,0E0,2.2752113E0,8.5518837E-1,1.5843722E0,0E0,0E0,3.024979E0,2.7769432E0,2.4193516E0,1.9655637E0,1.8201557E0,3.244524E0,0E0,0E0,0E0,0E0,2.2923398E0,4.1892796E0,0E0,0E0,9.0800375E-2,0E0,0E0,0E0,1.2477926E0,8.5538095E-1,3.3203208E0,2.3698416E0,0E0,0E0,0E0,0E0,0E0,0E0,0E0,0E0,0E0,0E0,0E0,0E0,0E0,0E0],"parents":[2147483647,0,0,1,1,2,2,3,3,4,4,5,5,6,6,9,9,10,10,11,11,12,12,14,14,15,15,16,16,19,19,20,20,21,21,22,22,23,23,24,24,29,29,30,30,33,33,37,37,38,38,39,39,40,40],"right_children":[2,4,6,8,10,12,14,-1,-1,16,18,20,22,-1,24,26,28,-1,-1,30,32,34,36,38,40,-1,-1,-1,-1,42,44,-1,-1,46,-1,-1,-1,48,50,52,54,-1,-1,-1,-1,-1,-1,-1,-1,-1,-1,-1,-1,-1,-1],"split_conditions":[2.7002558E-1,-1.3336955E0,-2.1684635E-1,-3.930685E-1,1.4529712E0,4.5038593E-1,3.0337647E-1,-1.8770945E-1,2.2067574E-1,1.5416147E0,-3.9031792E-1,2.617855E-1,-4.8798776E-1,2.7704528E-1,-2.1248503E0,-1.8118477E0,-2.8403413E-1,2.7538505E-1,-1.9582166E-1,-3.6681587E-1,-1.4962906E-1,-1.0645417E0,-4.5908907E-1,-1.7528483E-1,-3.4327415E-1,-6.141698E-3,-2.893075E-1,1.4823544E-1,-2.0175886E-1,-4.643485E-1,1.2225223E-1,1.0575417E-1,-2.6014805E-1,1.4244282E-1,6.248486E-1,1.5093058E-1,-2.1848288E-1,3.026682E-1,1.1507553E0,-3.8688552E-1,-6.146541E-1,1.8789662E-1,-7.271763E-2,-1.6034324E-1,3.2891795E-1,1.8141733E-2,1.4966242E-1,3.4117103E-1,-3.449583E-2,-1.8025717E-1,8.06992E-2,1.9286053E-1,-1.7342108E-1,3.2502674E-2,-2.8169686E-1],"split_indices":[4,10,12,1,19,29,4,0,0,16,7,3,16,0,14,19,13,0,0,3,10,16,6,23,29,0,0,0,0,8,5,0,0,2,0,0,0,11,0,9,20,0,0,0,0,0,0,0,0,0,0,0,0,0,0],"split_type":[0,0,0,0,0,0,0,0,0,0,0,0,0,0,0,0,0,0,0,0,0,0,0,0,0,0,0,0,0,0,0,0,0,0,0,0,0,0,0,0,0,0,0,0,0,0,0,0,0,0,0,0,0,0,0],"sum_hessian":[1.1044471E2,3.814233E1,7.2302376E1,4.3307157E0,3.3811615E1,4.1655346E1,3.0647032E1,2.598074E0,1.7326415E0,3.0716312E1,3.0953043E0,3.454328E1,7.1120634E0,1.0585171E0,2.9588514E1,2.7701056E1,3.0152552E0,1.2219595E0,1.8733448E0,2.6684488E1,7.8587937E0,3.5198197E0,3.5922434E0,5.3324795E0,2.4256035E1,1.0398656E0,2.666119E1,1.0036749E0,2.0115805E0,2.0837353E1,5.847137E0,1.9260929E0,5.9327006E0,2.0545504E0,1.4652694E0,1.2326189E0,2.3596244E0,2.0915365E0,3.240943E0,6.9347486E0,1.7321285E1,2.6294653E0,1.8207888E1,1.5323025E0,4.3148346E0,1.0248741E0,1.0296763E0,1.0701554E0,1.0213811E0,2.2094438E0,1.031499E0,3.2297966E0,3.7049522E0,2.2723792E0,1.5048906E1],"tree_param":{"num_deleted":"0","num_feature":"30","num_nodes":"55","size_leaf_vector":"1"}},{"base_weights":[-2.801426E-1,-2.6876403E-2,-5.583362E-1,8.75728E-2,-7.506018E-1,-6.870016E-1,1.6292498E-1,1.2596426E-2,4.1309556E-1,-2.4355753E-1,-5.4118033E-2,-8.7243456E-1,-1.5894966E-1,3.5003966E-1,-1.9775385E-1,9.8153934E-2,-2.2941475E-1,-9.3016595E-1,3.797354E-2,3.9784402E-1,-5.0403076E-1,-2.309623E-1,5.2655965E-1,1.799532E-1,-4.3868843E-1,-2.88895E-1,-7.987806E-2,-2.0811012E-1,4.6136242E-1,-6.958927E-1,7.7691555E-2,-6.367059E-2,3.441889E-1,2.529074E-2,2.669007E-1,8.60001E-2,-2.065726E-1,-2.5367097E-3,-2.4605311E-1],"categories":[],"categories_nodes":[],"categories_segments":[],"categories_sizes":[],"default_left":[0,0,0,0,0,0,0,0,0,0,0,0,0,0,0,0,0,0,0,0,0,0,0,0,0,0,0,0,0,0,0,0,0,0,0,0,0,0,0],"id":23,"left_children":[1,3,5,7,9,11,13,15,-1,-1,-1,17,19,-1,21,23,-1,25,-1,27,29,-1,31,33,35,-1,-1,-1,-1,37,-1,-1,-1,-1,-1,-1,-1,-1,-1],"loss_changes":[7.077928E0,4.517556E0,4.5593147E0,4.555722E0,1.13535404E-1,3.8623161E0,3.1502297E0,3.1152046E0,0E0,0E0,0E0,1.8490219E0,2.4758978E0,0E0,3.217885E0,1.9262304E0,0E0,3.6450005E-1,0E0,7.40086E0,1.31508E0,0E0,1.8893874E0,2.4512362E0,1.2583078E0,0E0,0E0,0E0,0E0,5.4548836E-1,0E0,0E0,0E0,0E0,0E0,0E0,0E0,0E0,0E0],"parents":[2147483647,0,0,1,1,2,2,3,3,4,4,5,5,6,6,7,7,11,11,12,12,14,14,15,15,17,17,19,19,20,20,22,22,23,23,24,24,29,29],"right_children":[2,4,6,8,10,12,14,16,-1,-1,-1,18,20,-1,22,24,-1,26,-1,28,30,-1,32,34,36,-1,-1,-1,-1,38,-1,-1,-1,-1,-1,-1,-1,-1,-1],"split_conditions":[-4.441144E-1,5.0066024E-1,1.0336099E0,-5.3239256E-1,1.9056641E0,1.2192212E0,1.164329E0,-8.425151E-1,4.1309556E-1,-2.4355753E-1,-5.4118033E-2,1.6571741E0,-1.5313081E-1,3.5003966E-1,-1.8122843E-1,7.699052E-1,-2.2941475E-1,1.5694978E0,3.797354E-2,-3.306033E-1,1.3876679E0,-2.309623E-1,8.380598E-1,5.4856294E-1,-8.639583E-1,-2.88895E-1,-7.987806E-2,-2.0811012E-1,4.6136242E-1,-8.040263E-1,7.7691555E-2,-6.367059E-2,3.441889E-1,2.529074E-2,2.669007E-1,8.60001E-2,-2.065726E-1,-2.5367097E-3,-2.4605311E-1],"split_indices":[14,10,7,14,28,4,7,14,0,0,0,17,26,0,9,24,0,13,0,26,22,0,19,24,7,0,0,0,0,18,0,0,0,0,0,0,0,0,0],"split_type":[0,0,0,0,0,0,0,0,0,0,0,0,0,0,0,0,0,0,0,0,0,0,0,0,0,0,0,0,0,0,0,0,0,0,0,0,0,0,0],"sum_hessian":[9.967036E1,5.274665E1,4.692371E1,4.6303295E1,6.443358E0,3.986051E1,7.063197E0,4.4713097E1,1.590195E0,5.4356256E0,1.0077326E0,2.9018188E1,1.0842323E1,1.276188E0,5.7870092E0,4.106668E1,3.6464174E0,2.7498034E1,1.5201539E0,4.090056E0,6.7522674E0,3.1980402E0,2.588969E0,3.6213573E1,4.853109E0,2.5773546E1,1.724487E0,2.2894678E0,1.8005879E0,5.4658093E0,1.2864579E0,1.4825469E0,1.1064221E0,3.2898514E1,3.315058E0,1.2058012E0,3.6473074E0,1.0004104E0,4.4653993E0],"tree_param":{"num_deleted":"0","num_feature":"30","num_nodes":"39","size_leaf_vector":"1"}},{"base_weights":[-2.3282373E-1,-5.985151E-1,-7.56068E-2,-2.8258058E-1,-8.632732E-1,5.6009717E-2,-3.5487223E-1,4.3733177E-1,-6.233597E-1,-2.7778172E-1,-1.0865344E-2,2.8786638E-1,-2.8593817E-1,-7.0606387E-1,4.1824218E-2,-4.283928E-1,5.94913E-1,-1.1245608E-1,-2.5559378E-1,4.152758E-1,1.7356226E-1,-5.521238E-1,1.2339601E-1,1.567816E-2,-8.160346E-1,2.5136858E-1,-1.6297838E-1,5.121251E-2,-2.0318805E-1,-3.861983E-1,1.1493142E-1,-2.4464691E-2,7.6667064E-1,1.04834475E-1,-7.007588E-1,-3.8010976E-1,5.1145154E-1,-2.6406178E-1,-6.2195998E-2,1.3104206E-2,2.8094164E-1,-2.2354536E-3,-1.66001E-1,1.0341039E-1,-1.5846482E-1,4.35368E-1,-1.1976879E-1,1.0993474E-1,-6.2081795E-2,-2.5194722E-1,-1.3156761E-2,3.846717E-2,-1.9960128E-1,3.1247303E-1,-1.1584428E-1,6.4299904E-2,-1.1201457E-1],"categories":[],"categories_nodes":[],"categories_segments":[],"categories_sizes":[],"default_left":[0,0,0,0,0,0,0,0,0,0,0,0,0,0,0,0,0,0,0,0,0,0,0,0,0,0,0,0,0,0,0,0,0,0,0,0,0,0,0,0,0,0,0,0,0,0,0,0,0,0,0,0,0,0,0,0,0],"id":24,"left_children":[1,3,5,7,9,11,13,15,17,-1,-1,19,21,23,25,27,-1,29,-1,-1,31,33,35,-1,37,39,-1,-1,-1,41,-1,43,45,47,49,51,53,-1,-1,55,-1,-1,-1,-1,-1,-1,-1,-1,-1,-1,-1,-1,-1,-1,-1,-1,-1],"loss_changes":[5.257948E0,2.0637274E0,2.4329972E0,3.7232401E0,7.191801E-1,3.68857E0,2.9783852E0,7.68291E0,1.0673823E0,0E0,0E0,3.2192202E0,2.1253982E0,9.8358774E-1,1.4708829E0,7.2634333E-1,0E0,7.218765E-1,0E0,0E0,3.0891638E0,1.2084908E0,1.8077992E0,0E0,2.0478868E-1,1.4074113E0,0E0,0E0,0E0,1.999209E-1,0E0,4.006969E0,5.8265877E0,3.2170907E-1,8.409991E-1,6.8959194E-1,2.824064E0,0E0,0E0,6.607626E-1,0E0,0E0,0E0,0E0,0E0,0E0,0E0,0E0,0E0,0E0,0E0,0E0,0E0,0E0,0E0,0E0,0E0],"parents":[2147483647,0,0,1,1,2,2,3,3,4,4,5,5,6,6,7,7,8,8,11,11,12,12,13,13,14,14,15,15,17,17,20,20,21,21,22,22,24,24,25,25,29,29,31,31,32,32,33,33,34,34,35,35,36,36,39,39],"right_children":[2,4,6,8,10,12,14,16,18,-1,-1,20,22,24,26,28,-1,30,-1,-1,32,34,36,-1,38,40,-1,-1,-1,42,-1,44,46,48,50,52,54,-1,-1,56,-1,-1,-1,-1,-1,-1,-1,-1,-1,-1,-1,-1,-1,-1,-1,-1,-1],"split_conditions":[2.7002558E-1,-2.743185E-1,1.884835E-1,-3.6758417E-1,1.7670746E0,9.011598E-3,2.2067122E0,-6.515924E-1,-1.8694028E0,-2.7778172E-1,-1.0865344E-2,3.6637342E-1,5.7385594E-1,-2.886281E0,8.8724846E-1,-4.7686777E-1,5.94913E-1,1.8802792E-1,-2.5559378E-1,4.152758E-1,4.2535335E-1,-9.612061E-1,3.8734105E-1,1.567816E-2,2.3585446E0,6.204719E-1,-1.6297838E-1,5.121251E-2,-2.0318805E-1,-1.0273525E0,1.1493142E-1,-1.08040296E-1,4.0156722E-2,-2.9927278E-1,6.5252626E-1,7.304909E-1,6.3259304E-1,-2.6406178E-1,-6.2195998E-2,-2.482834E0,2.8094164E-1,-2.2354536E-3,-1.66001E-1,1.0341039E-1,-1.5846482E-1,4.35368E-1,-1.1976879E-1,1.0993474E-1,-6.2081795E-2,-2.5194722E-1,-1.3156761E-2,3.846717E-2,-1.9960128E-1,3.1247303E-1,-1.1584428E-1,6.4299904E-2,-1.1201457E-1],"split_indices":[4,14,8,0,7,26,4,0,14,0,0,4,2,3,17,10,0,23,0,0,3,25,26,0,11,5,0,0,0,10,0,22,14,3,12,5,19,0,0,3,0,0,0,0,0,0,0,0,0,0,0,0,0,0,0,0,0],"split_type":[0,0,0,0,0,0,0,0,0,0,0,0,0,0,0,0,0,0,0,0,0,0,0,0,0,0,0,0,0,0,0,0,0,0,0,0,0,0,0,0,0,0,0,0,0,0,0,0,0,0,0,0,0,0,0,0,0],"sum_hessian":[9.1241005E1,2.6588472E1,6.4652534E1,1.3065177E1,1.3523294E1,4.448595E1,2.0166586E1,4.1065536E0,8.958624E0,1.2459666E1,1.0636287E0,2.6604805E1,1.7881145E1,1.028315E1,9.883435E0,3.0956101E0,1.0109435E0,3.2307198E0,5.727904E0,1.4628764E0,2.514193E1,1.0623781E1,7.257364E0,1.3688382E0,8.914311E0,7.697133E0,2.186303E0,1.0008135E0,2.0947964E0,2.223286E0,1.0074339E0,1.956749E1,5.574439E0,2.0144985E0,8.6092825E0,3.1677082E0,4.089656E0,7.6607056E0,1.2536061E0,6.46713E0,1.2300026E0,1.0005516E0,1.2227342E0,1.1474397E1,8.093094E0,3.3580437E0,2.2163954E0,1.000007E0,1.0144914E0,6.8753276E0,1.7339553E0,1.3364086E0,1.8312997E0,2.4702904E0,1.6193653E0,4.545757E0,1.9213735E0],"tree_param":{"num_deleted":"0","num_feature":"30","num_nodes":"57","size_leaf_vector":"1"}},{"base_weights":[-1.9560449E-1,-5.3323007E-1,-6.7281276E-2,-2.3589595E-1,-8.270601E-1,2.5875807E-1,-9.733731E-2,3.2722086E-1,-6.422608E-1,-7.5154724E-3,-2.7136585E-1,3.764493E-2,-3.8309994E-1,1.0985941E0,-4.922061E-1,-2.4934939E-1,3.6248825E-2,-2.4099007E-1,2.7040142E-1,-5.643328E-1,1.8150847E-2,-1.1251332E-1,5.870187E-1,-1.8825887E-1,-1.9817406E-2,-5.245164E-1,1.2641387E-1,-7.7662384E-3,6.146787E-1,-7.358444E-1,1.099516E-1,7.412084E-1,-1.9096594E-1,5.666666E-2,-2.0317784E-1,1.9949315E-1,-7.6830305E-2,4.044037E-2,-1.9148877E-1,3.3215544E-1,4.249961E-2,-2.7136955E-1,1.3679178E-2,4.6496007E-1,-8.75965E-2],"categories":[],"categories_nodes":[],"categories_segments":[],"categories_sizes":[],"default_left":[0,0,0,0,0,0,0,0,0,0,0,0,0,0,0,0,0,0,0,0,0,0,0,0,0,0,0,0,0,0,0,0,0,0,0,0,0,0,0,0,0,0,0,0,0],"id":25,"left_children":[1,3,5,7,9,-1,11,13,15,-1,-1,17,19,21,23,-1,-1,25,27,29,31,-1,-1,-1,-1,33,35,37,39,41,-1,43,-1,-1,-1,-1,-1,-1,-1,-1,-1,-1,-1,-1,-1],"loss_changes":[3.7058644E0,1.8702626E0,1.8647987E0,3.2191021E0,6.915183E-1,0E0,2.4301205E0,4.443254E0,1.2500505E0,0E0,0E0,2.88279E0,1.4778202E0,5.146848E0,1.7101622E-1,0E0,0E0,2.181216E0,2.316859E0,2.4941292E0,3.9029367E0,0E0,0E0,0E0,0E0,1.3978002E0,2.1580935E0,1.3752041E0,2.3595605E0,1.6362982E0,0E0,3.716205E0,0E0,0E0,0E0,0E0,0E0,0E0,0E0,0E0,0E0,0E0,0E0,0E0,0E0],"parents":[2147483647,0,0,1,1,2,2,3,3,4,4,6,6,7,7,8,8,11,11,12,12,13,13,14,14,17,17,18,18,19,19,20,20,25,25,26,26,27,27,28,28,29,29,31,31],"right_children":[2,4,6,8,10,-1,12,14,16,-1,-1,18,20,22,24,-1,-1,26,28,30,32,-1,-1,-1,-1,34,36,38,40,42,-1,44,-1,-1,-1,-1,-1,-1,-1,-1,-1,-1,-1,-1,-1],"split_conditions":[2.7002558E-1,-2.743185E-1,2.9107782E-1,-1.4417174E-1,-1.3316828E0,2.5875807E-1,-1.4774727E-2,-3.6758417E-1,1.2943704E0,-7.5154724E-3,-2.7136585E-1,1.3704107E-2,7.0877445E-1,-4.9875715E-1,6.830897E-1,-2.4934939E-1,3.6248825E-2,1.1872424E-1,-6.867675E-2,9.038492E-1,-8.408362E-2,-1.1251332E-1,5.870187E-1,-1.8825887E-1,-1.9817406E-2,-9.6762496E-1,-9.731048E-1,4.8560032E-1,-3.2328373E-1,8.904228E-1,1.099516E-1,4.6014562E-1,-1.9096594E-1,5.666666E-2,-2.0317784E-1,1.9949315E-1,-7.6830305E-2,4.044037E-2,-1.9148877E-1,3.3215544E-1,4.249961E-2,-2.7136955E-1,1.3679178E-2,4.6496007E-1,-8.75965E-2],"split_indices":[4,14,4,23,5,0,12,0,0,0,0,21,25,5,2,0,0,28,17,9,21,0,0,0,0,17,0,16,29,5,0,16,0,0,0,0,0,0,0,0,0,0,0,0,0],"split_type":[0,0,0,0,0,0,0,0,0,0,0,0,0,0,0,0,0,0,0,0,0,0,0,0,0,0,0,0,0,0,0,0,0,0,0,0,0,0,0,0,0,0,0,0,0],"sum_hessian":[8.5364075E1,2.2640438E1,6.2723637E1,1.2149192E1,1.0491246E1,1.0967728E0,6.1626865E1,5.1740522E0,6.97514E0,1.0409755E0,9.450271E0,4.244561E1,1.9181253E1,2.4896846E0,2.6843674E0,5.519559E0,1.4555813E0,1.9302742E1,2.3142868E1,1.2933259E1,6.247995E0,1.1234267E0,1.366258E0,1.6787255E0,1.0056419E0,1.0653662E1,8.64908E0,1.3341059E1,9.801809E0,1.1097898E1,1.8353618E0,2.9062233E0,3.3417716E0,1.8370144E0,8.816647E0,3.2852147E0,5.3638654E0,1.1522047E1,1.8190113E0,4.1451426E0,5.6566668E0,8.997658E0,2.1002393E0,1.3497425E0,1.5564806E0],"tree_param":{"num_deleted":"0","num_feature":"30","num_nodes":"45","size_leaf_vector":"1"}},{"base_weights":[-1.6274694E-1,-6.494343E-1,-8.291253E-2,-7.9744256E-1,5.2279856E-2,7.807779E-2,-3.098663E-1,-2.6611754E-1,-1.6487557E-3,-9.752802E-2,5.216356E-1,-8.0493927E-1,-5.149479E-2,2.7231437E-1,-1.8297112E-1,7.650871E-1,-1.4074881E-1,-2.2990222E-3,-2.6783088E-1,2.8709275E-1,-1.5242769E-1,1.1512805E-1,-3.9758053E-1,1.0687399E0,-2.2821738E-1,-7.265352E-1,1.3541122E-1,-1.489571E-1,1.3353314E-1,-4.3539733E-2,-2.260416E-1,1.08829126E-1,6.417304E-1,7.830385E-2,-1.707192E-1,-2.3326885E-2,-2.4806917E-1,-1.3966587E-1,1.1030811E-1],"categories":[],"categories_nodes":[],"categories_segments":[],"categories_sizes":[],"default_left":[0,0,0,0,0,0,0,0,0,0,0,0,0,0,0,0,0,0,0,0,0,0,0,0,0,0,0,0,0,0,0,0,0,0,0,0,0,0,0],"id":26,"left_children":[1,3,5,7,-1,9,11,-1,-1,13,15,17,19,-1,21,23,-1,-1,-1,-1,25,27,29,31,33,35,37,-1,-1,-1,-1,-1,-1,-1,-1,-1,-1,-1,-1],"loss_changes":[3.110928E0,1.5204906E0,2.62274E0,6.8959E-1,0E0,3.3538766E0,3.759474E0,0E0,0E0,2.8476782E0,3.2979677E0,7.0191765E-1,2.2420328E0,0E0,1.9398966E0,3.3087196E0,0E0,0E0,0E0,0E0,3.334394E0,2.8788562E0,1.4574234E0,5.2375813E0,6.8264884E-1,3.7172985E-1,2.109574E0,0E0,0E0,0E0,0E0,0E0,0E0,0E0,0E0,0E0,0E0,0E0,0E0],"parents":[2147483647,0,0,1,1,2,2,3,3,5,5,6,6,9,9,10,10,11,11,12,12,14,14,15,15,20,20,21,21,22,22,23,23,24,24,25,25,26,26],"right_children":[2,4,6,8,-1,10,12,-1,-1,14,16,18,20,